/********************************************************************/
/* FilterCoeff.h                               Author: Steve Benson */
/*                                             Date:   June 1, 1999 */
/*                                                                  */
/* Contains various filters for use in computing THD+N.             */
/********************************************************************/

#include "FilterCoeff.h"

extern const double A_Weight[NUM_FILTER_RATES][FILTER_TAPS] = {
    {   /*  44.1 kHz A-weighting coefficients */
       -0.0000246502532000, -0.0000177086621000, -0.0000272650394000,
       -0.0000125796304000, -0.0000333133227000, -0.0000051285335300,
       -0.0000341969663000,  0.0000012407114900, -0.0000430464406000,
         0.0000013357439800, -0.0000529858420000, -0.0000008788664870,
       -0.0000703851549000, -0.0000089142870300, -0.0000851429117000,
       -0.0000103648532000, -0.0000981706592000, -0.0000138372315000,
       -0.0001088126290000, -0.0000096176227100, -0.0001145832390000,
       -0.0000063679034200, -0.0001199644130000,  0.0000036366311400,
       -0.0001188820420000,  0.0000119465318000, -0.0001243549360000,
         0.0000175665015000, -0.0001290779360000,  0.0000198939487000,
       -0.0001415332010000,  0.0000190936073000, -0.0001488178640000,
         0.0000240017674000, -0.0001567682050000,  0.0000268957745000,
       -0.0001607099280000,  0.0000368166581000, -0.0001631169320000,
         0.0000438116735000, -0.0001642339070000,  0.0000577635773000,
       -0.0001621888420000,  0.0000660593756000, -0.0001676977210000,
         0.0000722380033000, -0.0001742279080000,  0.0000716902414000,
       -0.0001893712590000,  0.0000705071037000, -0.0001977203820000,
         0.0000736663292000, -0.0002077859590000,  0.0000772985436000,
       -0.0002103229470000,  0.0000887576814000, -0.0002119476090000,
         0.0000995867801000, -0.0002073960900000,  0.0001202655840000,
       -0.0002003352710000,  0.0001352028120000, -0.0001977823220000,
         0.0001511237910000, -0.0001965794290000,  0.0001590450650000,
       -0.0002020073360000,  0.0001704555200000, -0.0001994188980000,
         0.0001839917520000, -0.0001997624530000,  0.0001997363990000,
       -0.0001919969630000,  0.0002198596290000, -0.0001875997390000,
         0.0002383731870000, -0.0001770585970000,  0.0002627288090000,
       -0.0001715765390000,  0.0002755000760000, -0.0001735990890000,
         0.0002847732550000, -0.0001850524790000,  0.0002789623380000,
       -0.0002055539420000,  0.0002757314470000, -0.0002225198220000,
         0.0002683085250000, -0.0002453183960000,  0.0002637648750000,
       -0.0002611453980000,  0.0002594710620000, -0.0002824245340000,
         0.0002565992680000, -0.0002941693110000,  0.0002586707430000,
       -0.0003134514430000,  0.0002508385820000, -0.0003356064490000,
         0.0002416901670000, -0.0003676584540000,  0.0002206368960000,
       -0.0004000511430000,  0.0002107008390000, -0.0004251477410000,
         0.0001997416200000, -0.0004484557150000,  0.0002011790740000,
       -0.0004597567150000,  0.0002046258080000, -0.0004716485210000,
         0.0002183065580000, -0.0004686253630000,  0.0002355066980000,
       -0.0004759499320000,  0.0002440490200000, -0.0004849356880000,
         0.0002469427170000, -0.0005108338630000,  0.0002360701900000,
       -0.0005346094650000,  0.0002352517730000, -0.0005583352380000,
         0.0002273788090000, -0.0005809802870000,  0.0002310464370000,
       -0.0005987124070000,  0.0002284200850000, -0.0006192002880000,
         0.0002376892740000, -0.0006288674830000,  0.0002402408610000,
       -0.0006566959660000,  0.0002328760980000, -0.0006883836180000,
         0.0002124837320000, -0.0007426165500000,  0.0001828930880000,
       -0.0007852352910000,  0.0001679924200000, -0.0008275153100000,
         0.0001524541840000, -0.0008550784570000,  0.0001599980710000,
       -0.0008731596590000,  0.0001683933240000, -0.0008779136410000,
         0.0002060548190000, -0.0008650429910000,  0.0002373488530000,
       -0.0008653444460000,  0.0002689941310000, -0.0008658513660000,
         0.0002835030890000, -0.0008889713490000,  0.0003001191610000,
       -0.0008898811060000,  0.0003306222060000, -0.0008968996110000,
         0.0003620170540000, -0.0008840698780000,  0.0004121376540000,
       -0.0008766455360000,  0.0004537849980000, -0.0008563738320000,
         0.0005184803860000, -0.0008428542840000,  0.0005468431600000,
       -0.0008643565630000,  0.0005572270840000, -0.0009168482820000,
         0.0005139390580000, -0.0010154503000000,  0.0004666193780000,
       -0.0011023502000000,  0.0004097506430000, -0.0012170076900000,
         0.0003508097780000, -0.0013103241700000,  0.0003002390190000,
       -0.0014244889300000,  0.0002457686020000, -0.0015066294400000,
         0.0002227502700000, -0.0016093826500000,  0.0001538038740000,
       -0.0017389772000000,  0.0000777902767000, -0.0019075943900000,
       -0.0000570086889000, -0.0020981525400000, -0.0001475375150000,
       -0.0022445900200000, -0.0002329087860000, -0.0023935908800000,
       -0.0002664306220000, -0.0024746500600000, -0.0002709369230000,
       -0.0025603785000000, -0.0002288380510000, -0.0025582019000000,
       -0.0001380830470000, -0.0026051836500000, -0.0001120529350000,
       -0.0026817951000000, -0.0001146882110000, -0.0028667801500000,
       -0.0002319916690000, -0.0030791284000000, -0.0002866182940000,
       -0.0032837188800000, -0.0004014731000000, -0.0035280246200000,
       -0.0004525614180000, -0.0037337779600000, -0.0005532666630000,
       -0.0040115219700000, -0.0005887875180000, -0.0041989248400000,
       -0.0006691333950000, -0.0046159218300000, -0.0009369907520000,
       -0.0051613430800000, -0.0013888071400000, -0.0060730174700000,
       -0.0021085918200000, -0.0070150780300000, -0.0027096304900000,
       -0.0080540651900000, -0.0034737216400000, -0.0091011930100000,
       -0.0039700452600000, -0.0100744126000000, -0.0045487120500000,
       -0.0110276397000000, -0.0045859131500000, -0.0115776798000000,
       -0.0047014730700000, -0.0127308341000000, -0.0050138288500000,
       -0.0141498165000000, -0.0060259530200000, -0.0171809411000000,
       -0.0077207881700000, -0.0200901263000000, -0.0088539048600000,
       -0.0245602672000000, -0.0110526864000000, -0.0294181490000000,
       -0.0109844932000000, -0.0370817785000000, -0.0127080304000000,
       -0.0462109053000000,  0.0139116694000000, -0.0242510064000000,
         0.4526421690000000,  0.4526421690000000, -0.0242510064000000,
         0.0139116694000000, -0.0462109053000000, -0.0127080304000000,
       -0.0370817785000000, -0.0109844932000000, -0.0294181490000000,
       -0.0110526864000000, -0.0245602672000000, -0.0088539048600000,
       -0.0200901263000000, -0.0077207881700000, -0.0171809411000000,
       -0.0060259530200000, -0.0141498165000000, -0.0050138288500000,
       -0.0127308341000000, -0.0047014730700000, -0.0115776798000000,
       -0.0045859131500000, -0.0110276397000000, -0.0045487120500000,
       -0.0100744126000000, -0.0039700452600000, -0.0091011930100000,
       -0.0034737216400000, -0.0080540651900000, -0.0027096304900000,
       -0.0070150780300000, -0.0021085918200000, -0.0060730174700000,
       -0.0013888071400000, -0.0051613430800000, -0.0009369907520000,
       -0.0046159218300000, -0.0006691333950000, -0.0041989248400000,
       -0.0005887875180000, -0.0040115219700000, -0.0005532666630000,
       -0.0037337779600000, -0.0004525614180000, -0.0035280246200000,
       -0.0004014731000000, -0.0032837188800000, -0.0002866182940000,
       -0.0030791284000000, -0.0002319916690000, -0.0028667801500000,
       -0.0001146882110000, -0.0026817951000000, -0.0001120529350000,
       -0.0026051836500000, -0.0001380830470000, -0.0025582019000000,
       -0.0002288380510000, -0.0025603785000000, -0.0002709369230000,
       -0.0024746500600000, -0.0002664306220000, -0.0023935908800000,
       -0.0002329087860000, -0.0022445900200000, -0.0001475375150000,
       -0.0020981525400000, -0.0000570086889000, -0.0019075943900000,
         0.0000777902767000, -0.0017389772000000,  0.0001538038740000,
       -0.0016093826500000,  0.0002227502700000, -0.0015066294400000,
         0.0002457686020000, -0.0014244889300000,  0.0003002390190000,
       -0.0013103241700000,  0.0003508097780000, -0.0012170076900000,
         0.0004097506430000, -0.0011023502000000,  0.0004666193780000,
       -0.0010154503000000,  0.0005139390580000, -0.0009168482820000,
         0.0005572270840000, -0.0008643565630000,  0.0005468431600000,
       -0.0008428542840000,  0.0005184803860000, -0.0008563738320000,
         0.0004537849980000, -0.0008766455360000,  0.0004121376540000,
       -0.0008840698780000,  0.0003620170540000, -0.0008968996110000,
         0.0003306222060000, -0.0008898811060000,  0.0003001191610000,
       -0.0008889713490000,  0.0002835030890000, -0.0008658513660000,
         0.0002689941310000, -0.0008653444460000,  0.0002373488530000,
       -0.0008650429910000,  0.0002060548190000, -0.0008779136410000,
         0.0001683933240000, -0.0008731596590000,  0.0001599980710000,
       -0.0008550784570000,  0.0001524541840000, -0.0008275153100000,
         0.0001679924200000, -0.0007852352910000,  0.0001828930880000,
       -0.0007426165500000,  0.0002124837320000, -0.0006883836180000,
         0.0002328760980000, -0.0006566959660000,  0.0002402408610000,
       -0.0006288674830000,  0.0002376892740000, -0.0006192002880000,
         0.0002284200850000, -0.0005987124070000,  0.0002310464370000,
       -0.0005809802870000,  0.0002273788090000, -0.0005583352380000,
         0.0002352517730000, -0.0005346094650000,  0.0002360701900000,
       -0.0005108338630000,  0.0002469427170000, -0.0004849356880000,
         0.0002440490200000, -0.0004759499320000,  0.0002355066980000,
       -0.0004686253630000,  0.0002183065580000, -0.0004716485210000,
         0.0002046258080000, -0.0004597567150000,  0.0002011790740000,
       -0.0004484557150000,  0.0001997416200000, -0.0004251477410000,
         0.0002107008390000, -0.0004000511430000,  0.0002206368960000,
       -0.0003676584540000,  0.0002416901670000, -0.0003356064490000,
         0.0002508385820000, -0.0003134514430000,  0.0002586707430000,
       -0.0002941693110000,  0.0002565992680000, -0.0002824245340000,
         0.0002594710620000, -0.0002611453980000,  0.0002637648750000,
       -0.0002453183960000,  0.0002683085250000, -0.0002225198220000,
         0.0002757314470000, -0.0002055539420000,  0.0002789623380000,
       -0.0001850524790000,  0.0002847732550000, -0.0001735990890000,
         0.0002755000760000, -0.0001715765390000,  0.0002627288090000,
       -0.0001770585970000,  0.0002383731870000, -0.0001875997390000,
         0.0002198596290000, -0.0001919969630000,  0.0001997363990000,
       -0.0001997624530000,  0.0001839917520000, -0.0001994188980000,
         0.0001704555200000, -0.0002020073360000,  0.0001590450650000,
       -0.0001965794290000,  0.0001511237910000, -0.0001977823220000,
         0.0001352028120000, -0.0002003352710000,  0.0001202655840000,
       -0.0002073960900000,  0.0000995867801000, -0.0002119476090000,
         0.0000887576814000, -0.0002103229470000,  0.0000772985436000,
       -0.0002077859590000,  0.0000736663292000, -0.0001977203820000,
         0.0000705071037000, -0.0001893712590000,  0.0000716902414000,
       -0.0001742279080000,  0.0000722380033000, -0.0001676977210000,
         0.0000660593756000, -0.0001621888420000,  0.0000577635773000,
       -0.0001642339070000,  0.0000438116735000, -0.0001631169320000,
         0.0000368166581000, -0.0001607099280000,  0.0000268957745000,
       -0.0001567682050000,  0.0000240017674000, -0.0001488178640000,
         0.0000190936073000, -0.0001415332010000,  0.0000198939487000,
       -0.0001290779360000,  0.0000175665015000, -0.0001243549360000,
         0.0000119465318000, -0.0001188820420000,  0.0000036366311400,
       -0.0001199644130000, -0.0000063679034200, -0.0001145832390000,
       -0.0000096176227100, -0.0001088126290000, -0.0000138372315000,
       -0.0000981706592000, -0.0000103648532000, -0.0000851429117000,
       -0.0000089142870300, -0.0000703851549000, -0.0000008788664900,
       -0.0000529858420000,  0.0000013357439800, -0.0000430464406000,
         0.0000012407114900, -0.0000341969663000, -0.0000051285335300,
       -0.0000333133228000, -0.0000125796304000, -0.0000272650395000,
       -0.0000177086621000, -0.0000246502533000
    },
    {   /* 48 kHz A-weighting coefficients */
       -0.0000862115806000, -0.0000806832341000, -0.0000893402836000,
       -0.0000703446074000, -0.0000869828548000, -0.0000575258119000,
       -0.0000855683886000, -0.0000457839869000, -0.0000834567859000,
       -0.0000337980066000, -0.0000843241020000, -0.0000266511753000,
       -0.0000880351489000, -0.0000193178196000, -0.0000916091259000,
       -0.0000140711024000, -0.0000973791548000, -0.0000077425575600,
       -0.0000994301289000,  0.0000012010824200, -0.0001014817400000,
         0.0000104331083000, -0.0001005248270000,  0.0000233372380000,
       -0.0000993568201000,  0.0000328076148000, -0.0001016004760000,
         0.0000410532402000, -0.0001055005650000,  0.0000443942706000,
       -0.0001158724080000,  0.0000442698283000, -0.0001258379030000,
         0.0000447925268000, -0.0001376877390000,  0.0000435040135000,
       -0.0001474834580000,  0.0000475466447000, -0.0001532380000000,
         0.0000528154795000, -0.0001572097880000,  0.0000636157105000,
       -0.0001546177460000,  0.0000770699626000, -0.0001539583950000,
         0.0000886371286000, -0.0001526177280000,  0.0001005871360000,
       -0.0001550586440000,  0.0001067270010000, -0.0001599462670000,
         0.0001153273560000, -0.0001623487310000,  0.0001228330490000,
       -0.0001668840070000,  0.0001323780070000, -0.0001658463880000,
         0.0001457354010000, -0.0001653630540000,  0.0001586729140000,
       -0.0001610186780000,  0.0001772498590000, -0.0001560707910000,
         0.0001902984700000, -0.0001574744890000,  0.0002004525050000,
       -0.0001618423070000,  0.0002027869570000, -0.0001772727640000,
         0.0001982989820000, -0.0001929260360000,  0.0001948143290000,
       -0.0002122181510000,  0.0001859965620000, -0.0002320576780000,
         0.0001822186500000, -0.0002483407860000,  0.0001768870530000,
       -0.0002666393360000,  0.0001758278850000, -0.0002770341490000,
         0.0001779847000000, -0.0002922935090000,  0.0001740969410000,
       -0.0003089363600000,  0.0001706458210000, -0.0003308122620000,
         0.0001576156190000, -0.0003578531760000,  0.0001490224170000,
       -0.0003777673010000,  0.0001422139830000, -0.0003999194600000,
         0.0001385073490000, -0.0004117712730000,  0.0001445325450000,
       -0.0004215481060000,  0.0001505425860000, -0.0004246361990000,
         0.0001693846390000, -0.0004204645500000,  0.0001843732990000,
       -0.0004245441420000,  0.0001967011310000, -0.0004285241180000,
         0.0002026632460000, -0.0004469513570000,  0.0001980764360000,
       -0.0004641883880000,  0.0002003900660000, -0.0004817427470000,
         0.0001955528160000, -0.0005022822040000,  0.0001982579460000,
       -0.0005147262990000,  0.0001998073810000, -0.0005338584600000,
         0.0002031386300000, -0.0005416538520000,  0.0002142347850000,
       -0.0005567957660000,  0.0002109574810000, -0.0005800434600000,
         0.0002068795190000, -0.0006106768300000,  0.0001850483940000,
       -0.0006567618650000,  0.0001650394450000, -0.0006903266960000,
         0.0001516708130000, -0.0007285268450000,  0.0001379394690000,
       -0.0007528344270000,  0.0001436982070000, -0.0007695722470000,
         0.0001481450170000, -0.0007795360640000,  0.0001755509540000,
       -0.0007683922810000,  0.0002051562460000, -0.0007698051830000,
         0.0002290940500000, -0.0007664213780000,  0.0002527852860000,
       -0.0007809036060000,  0.0002575456740000, -0.0007945427720000,
         0.0002821190100000, -0.0007956159780000,  0.0003016741160000,
       -0.0008038121080000,  0.0003334527210000, -0.0007906396880000,
         0.0003727760710000, -0.0007892885630000,  0.0004072993100000,
       -0.0007715888160000,  0.0004625402000000, -0.0007608171990000,
         0.0004860199090000, -0.0007797627810000,  0.0004986878320000,
       -0.0008136148090000,  0.0004731592590000, -0.0008962091720000,
         0.0004266483300000, -0.0009689465130000,  0.0003900833850000,
       -0.0010601124900000,  0.0003287170110000, -0.0011513715000000,
         0.0002922761850000, -0.0012331955000000,  0.0002381252510000,
       -0.0013312930400000,  0.0002057829540000, -0.0013921947300000,
         0.0001810929620000, -0.0014907062000000,  0.0001191808490000,
       -0.0015978180100000,  0.0000584755166000, -0.0017398540300000,
       -0.0000571527030000, -0.0019052314900000, -0.0001352129370000,
       -0.0020241715500000, -0.0002043671850000, -0.0021618402300000,
       -0.0002540706180000, -0.0022373170100000, -0.0002488941840000,
       -0.0023137750100000, -0.0002519912190000, -0.0023487245300000,
       -0.0001676211230000, -0.0023434586000000, -0.0001227332790000,
       -0.0024088342800000, -0.0000974251961000, -0.0024756051200000,
       -0.0001234069790000, -0.0026616156100000, -0.0002269174540000,
       -0.0028279379700000, -0.0002619600070000, -0.0030038351600000,
       -0.0003688762150000, -0.0032195242400000, -0.0004104111180000,
       -0.0033760093500000, -0.0004839284240000, -0.0036293516000000,
       -0.0005519403160000, -0.0037794446700000, -0.0005524271540000,
       -0.0040569890300000, -0.0007601712260000, -0.0044782597900000,
       -0.0010080272700000, -0.0050518661800000, -0.0015512728900000,
       -0.0059174687600000, -0.0021155003000000, -0.0066636080800000,
       -0.0026479965300000, -0.0076173614700000, -0.0032992228400000,
       -0.0084505947900000, -0.0036710735300000, -0.0092848842700000,
       -0.0041982321100000, -0.0101230907000000, -0.0042271100500000,
       -0.0105217752000000, -0.0042623540400000, -0.0114937511000000,
       -0.0045830130200000, -0.0124964547000000, -0.0050107788500000,
       -0.0146359637000000, -0.0066459047200000, -0.0173425106000000,
       -0.0074295350300000, -0.0199594828000000, -0.0091382318800000,
       -0.0246355440000000, -0.0102720334000000, -0.0281874479000000,
       -0.0103068290000000, -0.0369107088000000, -0.0113516793000000,
       -0.0418695404000000,  0.0211910598000000, -0.0165073209000000,
         0.4429956480000000,  0.4429956480000000, -0.0165073209000000,
         0.0211910598000000, -0.0418695404000000, -0.0113516793000000,
       -0.0369107088000000, -0.0103068290000000, -0.0281874479000000,
       -0.0102720334000000, -0.0246355440000000, -0.0091382318800000,
       -0.0199594828000000, -0.0074295350300000, -0.0173425106000000,
       -0.0066459047200000, -0.0146359637000000, -0.0050107788500000,
       -0.0124964547000000, -0.0045830130200000, -0.0114937511000000,
       -0.0042623540400000, -0.0105217752000000, -0.0042271100500000,
       -0.0101230907000000, -0.0041982321100000, -0.0092848842700000,
       -0.0036710735300000, -0.0084505947900000, -0.0032992228400000,
       -0.0076173614700000, -0.0026479965300000, -0.0066636080800000,
       -0.0021155003000000, -0.0059174687600000, -0.0015512728900000,
       -0.0050518661800000, -0.0010080272700000, -0.0044782597900000,
       -0.0007601712260000, -0.0040569890300000, -0.0005524271540000,
       -0.0037794446700000, -0.0005519403160000, -0.0036293516000000,
       -0.0004839284240000, -0.0033760093500000, -0.0004104111180000,
       -0.0032195242400000, -0.0003688762150000, -0.0030038351600000,
       -0.0002619600070000, -0.0028279379700000, -0.0002269174540000,
       -0.0026616156100000, -0.0001234069790000, -0.0024756051200000,
       -0.0000974251961000, -0.0024088342800000, -0.0001227332790000,
       -0.0023434586000000, -0.0001676211230000, -0.0023487245300000,
       -0.0002519912190000, -0.0023137750100000, -0.0002488941840000,
       -0.0022373170100000, -0.0002540706180000, -0.0021618402300000,
       -0.0002043671850000, -0.0020241715500000, -0.0001352129370000,
       -0.0019052314900000, -0.0000571527030000, -0.0017398540300000,
         0.0000584755166000, -0.0015978180100000,  0.0001191808490000,
       -0.0014907062000000,  0.0001810929620000, -0.0013921947300000,
         0.0002057829540000, -0.0013312930400000,  0.0002381252510000,
       -0.0012331955000000,  0.0002922761850000, -0.0011513715000000,
         0.0003287170110000, -0.0010601124900000,  0.0003900833850000,
       -0.0009689465130000,  0.0004266483300000, -0.0008962091720000,
         0.0004731592590000, -0.0008136148090000,  0.0004986878320000,
       -0.0007797627810000,  0.0004860199090000, -0.0007608171990000,
         0.0004625402000000, -0.0007715888160000,  0.0004072993100000,
       -0.0007892885630000,  0.0003727760710000, -0.0007906396880000,
         0.0003334527210000, -0.0008038121080000,  0.0003016741160000,
       -0.0007956159780000,  0.0002821190100000, -0.0007945427720000,
         0.0002575456740000, -0.0007809036060000,  0.0002527852860000,
       -0.0007664213780000,  0.0002290940500000, -0.0007698051830000,
         0.0002051562460000, -0.0007683922810000,  0.0001755509540000,
       -0.0007795360640000,  0.0001481450170000, -0.0007695722470000,
         0.0001436982070000, -0.0007528344270000,  0.0001379394690000,
       -0.0007285268450000,  0.0001516708130000, -0.0006903266960000,
         0.0001650394450000, -0.0006567618650000,  0.0001850483940000,
       -0.0006106768300000,  0.0002068795190000, -0.0005800434600000,
         0.0002109574810000, -0.0005567957660000,  0.0002142347850000,
       -0.0005416538520000,  0.0002031386300000, -0.0005338584600000,
         0.0001998073810000, -0.0005147262990000,  0.0001982579460000,
       -0.0005022822040000,  0.0001955528160000, -0.0004817427470000,
         0.0002003900660000, -0.0004641883880000,  0.0001980764360000,
       -0.0004469513570000,  0.0002026632460000, -0.0004285241180000,
         0.0001967011310000, -0.0004245441420000,  0.0001843732990000,
       -0.0004204645500000,  0.0001693846390000, -0.0004246361990000,
         0.0001505425860000, -0.0004215481060000,  0.0001445325450000,
       -0.0004117712730000,  0.0001385073490000, -0.0003999194600000,
         0.0001422139830000, -0.0003777673010000,  0.0001490224170000,
       -0.0003578531760000,  0.0001576156190000, -0.0003308122620000,
         0.0001706458210000, -0.0003089363600000,  0.0001740969410000,
       -0.0002922935090000,  0.0001779847000000, -0.0002770341490000,
         0.0001758278850000, -0.0002666393360000,  0.0001768870530000,
       -0.0002483407860000,  0.0001822186500000, -0.0002320576780000,
         0.0001859965620000, -0.0002122181510000,  0.0001948143290000,
       -0.0001929260360000,  0.0001982989820000, -0.0001772727640000,
         0.0002027869570000, -0.0001618423070000,  0.0002004525050000,
       -0.0001574744890000,  0.0001902984700000, -0.0001560707910000,
         0.0001772498590000, -0.0001610186780000,  0.0001586729140000,
       -0.0001653630540000,  0.0001457354010000, -0.0001658463880000,
         0.0001323780070000, -0.0001668840070000,  0.0001228330490000,
       -0.0001623487310000,  0.0001153273560000, -0.0001599462670000,
         0.0001067270010000, -0.0001550586440000,  0.0001005871360000,
       -0.0001526177280000,  0.0000886371286000, -0.0001539583950000,
         0.0000770699626000, -0.0001546177460000,  0.0000636157105000,
       -0.0001572097880000,  0.0000528154795000, -0.0001532380000000,
         0.0000475466447000, -0.0001474834580000,  0.0000435040135000,
       -0.0001376877390000,  0.0000447925268000, -0.0001258379030000,
         0.0000442698283000, -0.0001158724080000,  0.0000443942706000,
       -0.0001055005650000,  0.0000410532402000, -0.0001016004760000,
         0.0000328076148000, -0.0000993568201000,  0.0000233372380000,
       -0.0001005248270000,  0.0000104331083000, -0.0001014817400000,
         0.0000012010824200, -0.0000994301289000, -0.0000077425575600,
       -0.0000973791548000, -0.0000140711024000, -0.0000916091259000,
       -0.0000193178196000, -0.0000880351489000, -0.0000266511753000,
       -0.0000843241020000, -0.0000337980066000, -0.0000834567859000,
       -0.0000457839869000, -0.0000855683886000, -0.0000575258120000,
       -0.0000869828548000, -0.0000703446074000, -0.0000893402836000,
       -0.0000806832341000, -0.0000862115806000
    },
    {   /* 96 kHz A-weighting coefficients */
       -0.0002592262310000, -0.0002571957670000, -0.0002631550050000,
       -0.0002558226820000, -0.0002657730570000, -0.0002512568500000,
       -0.0002642152000000, -0.0002428844940000, -0.0002605259410000,
       -0.0002347660960000, -0.0002593334990000, -0.0002303830360000,
       -0.0002616652170000, -0.0002279093410000, -0.0002635266680000,
       -0.0002226850760000, -0.0002613505860000, -0.0002135599310000,
       -0.0002567930490000, -0.0002042892700000, -0.0002541959490000,
       -0.0001980695150000, -0.0002543598440000, -0.0001930283330000,
       -0.0002535681900000, -0.0001852061360000, -0.0002493665750000,
       -0.0001748269790000, -0.0002447732530000, -0.0001666672850000,
       -0.0002445259640000, -0.0001635499530000, -0.0002483350030000,
       -0.0001620356340000, -0.0002507943190000, -0.0001567050580000,
       -0.0002484568910000, -0.0001473085000000, -0.0002442569730000,
       -0.0001386930410000, -0.0002429358710000, -0.0001335196320000,
       -0.0002439585900000, -0.0001282547030000, -0.0002422608590000,
       -0.0001184511020000, -0.0002359859620000, -0.0001058054950000,
       -0.0002299196980000, -0.0000964256496000, -0.0002291132960000,
       -0.0000922490978000, -0.0002315186120000, -0.0000879335672000,
       -0.0002305429170000, -0.0000782342051000, -0.0002244314750000,
       -0.0000656861713000, -0.0002191354140000, -0.0000574131955000,
       -0.0002202396400000, -0.0000553571706000, -0.0002254318710000,
       -0.0000540897348000, -0.0002286342530000, -0.0000496609150000,
       -0.0002299771530000, -0.0000465427311000, -0.0002366920570000,
       -0.0000518667584000, -0.0002528299100000, -0.0000647061218000,
       -0.0002725162970000, -0.0000762349908000, -0.0002872151530000,
       -0.0000813967025000, -0.0002972202300000, -0.0000855783390000,
       -0.0003107137400000, -0.0000962942611000, -0.0003313384560000,
       -0.0001116716710000, -0.0003523604620000, -0.0001228215740000,
       -0.0003664413560000, -0.0001271100210000, -0.0003769417030000,
       -0.0001326857940000, -0.0003935412400000, -0.0001467072240000,
       -0.0004177203180000, -0.0001640325710000, -0.0004394926060000,
       -0.0001736668680000, -0.0004512799250000, -0.0001746369220000,
       -0.0004593598880000, -0.0001782063620000, -0.0004756971650000,
       -0.0001924076730000, -0.0005013434740000, -0.0002110963970000,
       -0.0005257588450000, -0.0002240051610000, -0.0005436064310000,
       -0.0002333618050000, -0.0005641470410000, -0.0002518207700000,
       -0.0005981365470000, -0.0002834011020000, -0.0006405658630000,
       -0.0003153335160000, -0.0006754055010000, -0.0003342784790000,
       -0.0006970701520000, -0.0003444275500000, -0.0007176548980000,
       -0.0003606248710000, -0.0007484257060000, -0.0003855907380000,
       -0.0007821130320000, -0.0004047745100000, -0.0008027928390000,
       -0.0004075279480000, -0.0008097760230000, -0.0004037214950000,
       -0.0008196816060000, -0.0004098602790000, -0.0008418367190000,
       -0.0004237108890000, -0.0008627879430000, -0.0004256401460000,
       -0.0008646559060000, -0.0004070860160000, -0.0008523455900000,
       -0.0003852232200000, -0.0008491733880000, -0.0003807177250000,
       -0.0008653571920000, -0.0003896759000000, -0.0008851050810000,
       -0.0003916036410000, -0.0008926302770000, -0.0003829968850000,
       -0.0008992897320000, -0.0003862072970000, -0.0009296107690000,
       -0.0004175207150000, -0.0009840978760000, -0.0004601540010000,
       -0.0010343001000000, -0.0004845636140000, -0.0010611281700000,
       -0.0004897191040000, -0.0010821715300000, -0.0005046671700000,
       -0.0011259566500000, -0.0005452307410000, -0.0011885148000000,
       -0.0005885776500000, -0.0012372354500000, -0.0006057932290000,
       -0.0012594997800000, -0.0006066328830000, -0.0012843997100000,
       -0.0006279333790000, -0.0013411721900000, -0.0006782298810000,
       -0.0014127968000000, -0.0007204987240000, -0.0014568159700000,
       -0.0007244493220000, -0.0014689608000000, -0.0007155765170000,
       -0.0014965140200000, -0.0007455686030000, -0.0015760583500000,
       -0.0008217836450000, -0.0016836346900000, -0.0008996926830000,
       -0.0017743089700000, -0.0009547790140000, -0.0018572263800000,
       -0.0010287271900000, -0.0019914366200000, -0.0011735507500000,
       -0.0021988664700000, -0.0013684142800000, -0.0024205635500000,
       -0.0015364780600000, -0.0025911624100000, -0.0016496169300000,
       -0.0027321175200000, -0.0017706720300000, -0.0029224353000000,
       -0.0019608261300000, -0.0031779118600000, -0.0021798395200000,
       -0.0034156721100000, -0.0023337551600000, -0.0035699780600000,
       -0.0024139018700000, -0.0036966534700000, -0.0025195700600000,
       -0.0038981872700000, -0.0027099997100000, -0.0041600999200000,
       -0.0028938487000000, -0.0043454285900000, -0.0029404927800000,
       -0.0043864021200000, -0.0028786539300000, -0.0044075114400000,
       -0.0028860355400000, -0.0045749713000000, -0.0030500173400000,
       -0.0048618548500000, -0.0032365450000000, -0.0050852301600000,
       -0.0032945333000000, -0.0052059221800000, -0.0033311030900000,
       -0.0054575083600000, -0.0036213386100000, -0.0060491844100000,
       -0.0042054923100000, -0.0068159738400000, -0.0047475345300000,
       -0.0073735811100000, -0.0049604781100000, -0.0076728216300000,
       -0.0050746019000000, -0.0081743777800000, -0.0056028215900000,
       -0.0092445955700000, -0.0065632044600000, -0.0105065699000000,
       -0.0072509490700000, -0.0112062050000000, -0.0071498086300000,
       -0.0113982021000000, -0.0069443424400000, -0.0123338251000000,
       -0.0079578450800000, -0.0149552078000000, -0.0100092271000000,
       -0.0177912080000000, -0.0100249629000000, -0.0170264702000000,
       -0.0036400005300000, -0.0097115066400000,  0.0114618049000000,
         0.0029262374900000,  0.0382353958000000,  0.0260187561000000,
         0.3651098910000000,  0.3651098910000000,  0.0260187561000000,
         0.0382353958000000,  0.0029262374900000,  0.0114618049000000,
       -0.0097115066400000, -0.0036400005300000, -0.0170264702000000,
       -0.0100249629000000, -0.0177912080000000, -0.0100092271000000,
       -0.0149552078000000, -0.0079578450800000, -0.0123338251000000,
       -0.0069443424400000, -0.0113982021000000, -0.0071498086300000,
       -0.0112062050000000, -0.0072509490700000, -0.0105065699000000,
       -0.0065632044600000, -0.0092445955700000, -0.0056028215900000,
       -0.0081743777800000, -0.0050746019000000, -0.0076728216300000,
       -0.0049604781100000, -0.0073735811100000, -0.0047475345300000,
       -0.0068159738400000, -0.0042054923100000, -0.0060491844100000,
       -0.0036213386100000, -0.0054575083600000, -0.0033311030900000,
       -0.0052059221800000, -0.0032945333000000, -0.0050852301600000,
       -0.0032365450000000, -0.0048618548500000, -0.0030500173400000,
       -0.0045749713000000, -0.0028860355400000, -0.0044075114400000,
       -0.0028786539300000, -0.0043864021200000, -0.0029404927800000,
       -0.0043454285900000, -0.0028938487000000, -0.0041600999200000,
       -0.0027099997100000, -0.0038981872700000, -0.0025195700600000,
       -0.0036966534700000, -0.0024139018700000, -0.0035699780600000,
       -0.0023337551600000, -0.0034156721100000, -0.0021798395200000,
       -0.0031779118600000, -0.0019608261300000, -0.0029224353000000,
       -0.0017706720300000, -0.0027321175200000, -0.0016496169300000,
       -0.0025911624100000, -0.0015364780600000, -0.0024205635500000,
       -0.0013684142800000, -0.0021988664700000, -0.0011735507500000,
       -0.0019914366200000, -0.0010287271900000, -0.0018572263800000,
       -0.0009547790140000, -0.0017743089700000, -0.0008996926830000,
       -0.0016836346900000, -0.0008217836450000, -0.0015760583500000,
       -0.0007455686030000, -0.0014965140200000, -0.0007155765170000,
       -0.0014689608000000, -0.0007244493220000, -0.0014568159700000,
       -0.0007204987240000, -0.0014127968000000, -0.0006782298810000,
       -0.0013411721900000, -0.0006279333790000, -0.0012843997100000,
       -0.0006066328830000, -0.0012594997800000, -0.0006057932290000,
       -0.0012372354500000, -0.0005885776500000, -0.0011885148000000,
       -0.0005452307410000, -0.0011259566500000, -0.0005046671700000,
       -0.0010821715300000, -0.0004897191040000, -0.0010611281700000,
       -0.0004845636140000, -0.0010343001000000, -0.0004601540010000,
       -0.0009840978760000, -0.0004175207150000, -0.0009296107690000,
       -0.0003862072970000, -0.0008992897320000, -0.0003829968850000,
       -0.0008926302770000, -0.0003916036410000, -0.0008851050810000,
       -0.0003896759000000, -0.0008653571920000, -0.0003807177250000,
       -0.0008491733880000, -0.0003852232200000, -0.0008523455900000,
       -0.0004070860160000, -0.0008646559060000, -0.0004256401460000,
       -0.0008627879430000, -0.0004237108890000, -0.0008418367190000,
       -0.0004098602790000, -0.0008196816060000, -0.0004037214950000,
       -0.0008097760230000, -0.0004075279480000, -0.0008027928390000,
       -0.0004047745100000, -0.0007821130320000, -0.0003855907380000,
       -0.0007484257060000, -0.0003606248710000, -0.0007176548980000,
       -0.0003444275500000, -0.0006970701520000, -0.0003342784790000,
       -0.0006754055010000, -0.0003153335160000, -0.0006405658630000,
       -0.0002834011020000, -0.0005981365470000, -0.0002518207700000,
       -0.0005641470410000, -0.0002333618050000, -0.0005436064310000,
       -0.0002240051610000, -0.0005257588450000, -0.0002110963970000,
       -0.0005013434740000, -0.0001924076730000, -0.0004756971650000,
       -0.0001782063620000, -0.0004593598880000, -0.0001746369220000,
       -0.0004512799250000, -0.0001736668680000, -0.0004394926060000,
       -0.0001640325710000, -0.0004177203180000, -0.0001467072240000,
       -0.0003935412400000, -0.0001326857940000, -0.0003769417030000,
       -0.0001271100210000, -0.0003664413560000, -0.0001228215740000,
       -0.0003523604620000, -0.0001116716710000, -0.0003313384560000,
       -0.0000962942611000, -0.0003107137400000, -0.0000855783390000,
       -0.0002972202300000, -0.0000813967025000, -0.0002872151530000,
       -0.0000762349908000, -0.0002725162970000, -0.0000647061218000,
       -0.0002528299100000, -0.0000518667584000, -0.0002366920570000,
       -0.0000465427311000, -0.0002299771530000, -0.0000496609150000,
       -0.0002286342530000, -0.0000540897348000, -0.0002254318710000,
       -0.0000553571706000, -0.0002202396400000, -0.0000574131955000,
       -0.0002191354140000, -0.0000656861713000, -0.0002244314750000,
       -0.0000782342051000, -0.0002305429170000, -0.0000879335672000,
       -0.0002315186120000, -0.0000922490978000, -0.0002291132960000,
       -0.0000964256496000, -0.0002299196980000, -0.0001058054950000,
       -0.0002359859620000, -0.0001184511020000, -0.0002422608590000,
       -0.0001282547030000, -0.0002439585900000, -0.0001335196320000,
       -0.0002429358710000, -0.0001386930410000, -0.0002442569730000,
       -0.0001473085000000, -0.0002484568910000, -0.0001567050580000,
       -0.0002507943190000, -0.0001620356340000, -0.0002483350030000,
       -0.0001635499530000, -0.0002445259640000, -0.0001666672850000,
       -0.0002447732530000, -0.0001748269790000, -0.0002493665750000,
       -0.0001852061360000, -0.0002535681900000, -0.0001930283330000,
       -0.0002543598440000, -0.0001980695150000, -0.0002541959490000,
       -0.0002042892700000, -0.0002567930490000, -0.0002135599310000,
       -0.0002613505860000, -0.0002226850760000, -0.0002635266680000,
       -0.0002279093410000, -0.0002616652170000, -0.0002303830360000,
       -0.0002593334990000, -0.0002347660960000, -0.0002605259410000,
       -0.0002428844940000, -0.0002642152000000, -0.0002512568500000,
       -0.0002657730570000, -0.0002558226820000, -0.0002631550050000,
       -0.0002571957670000, -0.0002592262310000
    }
    };
extern const double Bandpass_1kHz[NUM_FILTER_RATES][FILTER_TAPS] = {
    {   /* 44.1 kHz Bandpass coefficients */
       -0.0000062312709459, -0.0000186303953220, -0.0000308432795055,
       -0.0000427587911520, -0.0000542841514215, -0.0000653499838530,
       -0.0000759132614625, -0.0000859578151740, -0.0000954922336830,
       -0.0001045451808555, -0.0001131583453770, -0.0001213774219350,
       -0.0001292416933500, -0.0001367729008800, -0.0001439642161650,
       -0.0001507701252750, -0.0001570980849900, -0.0001628027027550,
       -0.0001676831298450, -0.0001714841470650, -0.0001739012837100,
       -0.0001745900321550, -0.0001731790194750, -0.0001692867179850,
       -0.0001625410617600, -0.0001526011005750, -0.0001391796783300,
       -0.0001220659497750, -0.0001011465222075, -0.0000764239658490,
       -0.0000480315241560, -0.0000162429636600,  0.0000185232997950,
         0.0000557064174975,  0.0000946119980190,  0.0001344276803100,
         0.0001742450659950,  0.0002130873440850,  0.0002499416431050,
         0.0002837948444100,  0.0003136713737850,  0.0003386713360800,
         0.0003580072442100,  0.0003710376157950,  0.0003772957869450,
         0.0003765124451550,  0.0003686306593200,  0.0003538124770950,
         0.0003324365467500,  0.0003050866283850,  0.0002725312913400,
         0.0002356955277600,  0.0001956254223000,  0.0001534473563700,
         0.0001103235751695,  0.0000674061016860,  0.0000257911561215,
       -0.0000135237684120, -0.0000496780994325, -0.0000819797661375,
       -0.0001099285811085, -0.0001332302109600, -0.0001517999775600,
       -0.0001657562306400, -0.0001754035529400, -0.0001812066055800,
       -0.0001837558800000, -0.0001837271285850, -0.0001818365610600,
       -0.0001787941963500, -0.0001752579051300, -0.0001717907221800,
       -0.0001688238632850, -0.0001666277047050, -0.0001652925685950,
       -0.0001647207096150, -0.0001646303470350, -0.0001645719375300,
       -0.0001639562416800, -0.0001620930511200, -0.0001582388484600,
       -0.0001516510668750, -0.0001416461727450, -0.0001276584320550,
       -0.0001092960423555, -0.0000863912662305, -0.0000590413474035,
       -0.0000276373038480,  0.0000071218240170,  0.0000442310691900,
         0.0000823990177395,  0.0001200848706750,  0.0001555523796750,
         0.0001869390519150,  0.0002123381059800,  0.0002298899052450,
         0.0002378788646850,  0.0002348313544500,  0.0002196097468950,
         0.0001914976879200,  0.0001502717947500,  0.0000962553202380,
         0.0000303499775040, -0.0000459570809775, -0.0001306131299550,
       -0.0002210473938750, -0.0003142457760750, -0.0004068510461400,
       -0.0004952853859800, -0.0005758910133900, -0.0006450834748050,
       -0.0006995112940200, -0.0007362150295500, -0.0007527783948300,
       -0.0007474640712000, -0.0007193271231300, -0.0006682995442200,
       -0.0005952404558100, -0.0005019477239700, -0.0003911282656050,
       -0.0002663261092800, -0.0001318090469850,  0.0000075832779215,
         0.0001466251756200,  0.0002799181123200,  0.0004021232661600,
         0.0005082040702200,  0.0005936684372850,  0.0006547998279900,
         0.0006888662249700,  0.0006942964932750,  0.0006708144839550,
         0.0006195225775200,  0.0005429281911900,  0.0004449088851900,
         0.0003306142166250,  0.0002063051321100,  0.0000791344562085,
       -0.0000431252116680, -0.0001523972511600, -0.0002406491599050,
       -0.0003002597898300, -0.0003243909079950, -0.0003073473422250,
       -0.0002449096372800, -0.0001346235013200,  0.0000239686391175,
         0.0002291669976750,  0.0004770353383950,  0.0007614112159500,
         0.0010740099631800,  0.0014046231276000,  0.0017414081569500,
         0.0020712621814500,  0.0023802689872500,  0.0026542043913000,
         0.0028790827527000,  0.0030417239737500,  0.0031303193229000,
         0.0031349729565000,  0.0030481960393500,  0.0028653312765000,
         0.0025848874821000,  0.0022087664445000,  0.0017423679157500,
         0.0011945630235000,  0.0005775309736350, -0.0000935406080070,
       -0.0008008858149600, -0.0015247098751500, -0.0022438412419500,
       -0.0029364650007000, -0.0035809120116000, -0.0041564750073000,
       -0.0046442203846500, -0.0050277635562000, -0.0052939756138500,
       -0.0054335905239000, -0.0054416847408000, -0.0053180050654500,
       -0.0050671256443500, -0.0046984206423000, -0.0042258464787000,
       -0.0036675340663500, -0.0030451997037000, -0.0023833900975500,
       -0.0017085848356500, -0.0010481855653500, -0.0004294271739450,
         0.0001217492741850,  0.0005818191710100,  0.0009307480389900,
         0.0011529719470500,  0.0012382421089500,  0.0011822945904000,
         0.0009873112095000,  0.0006621443390100,  0.0002222863080900,
       -0.0003104270134350, -0.0009083790269400, -0.0015389921431500,
       -0.0021657848173500, -0.0027496364164500, -0.0032502214552500,
       -0.0036275667813000, -0.0038436787620000, -0.0038641826454000,
       -0.0036599136535500, -0.0032083985934000, -0.0024951680754000,
       -0.0015148437496500, -0.0002719504441500,  0.0012185888022000,
         0.0029313066436500,  0.0048304154398500,  0.0068704095190500,
         0.0089970411415500,  0.0111486518451000,  0.0132578279295000,
         0.0152533364445000,  0.0170622853170000,  0.0186124452360000,
         0.0198346569960000,  0.0206652492585000,  0.0210483837795000,
         0.0209382477150000,  0.0203010142335000,  0.0191164972845000,
         0.0173794372290000,  0.0151003614300000,  0.0123059777610000,
         0.0090390743751000,  0.0053579131914000,  0.0013351213837500,
       -0.0029438974488000, -0.0073829953428000, -0.0118777027215000,
       -0.0163179747885000, -0.0205911836130000, -0.0245852673990000,
       -0.0281919416625000, -0.0313098751350000, -0.0338477297235000,
       -0.0357269685465000, -0.0368843413785000, -0.0372739666530000,
       -0.0368689382985000, -0.0356624035845000, -0.0336680708595000,
       -0.0309201261600000, -0.0274725532620000, -0.0233978750775000,
       -0.0187853464260000, -0.0137386511955000, -0.0083731699359000,
       -0.0028128974296500,  0.0028128974296500,  0.0083731699359000,
         0.0137386511955000,  0.0187853464260000,  0.0233978750775000,
         0.0274725532620000,  0.0309201261600000,  0.0336680708595000,
         0.0356624035845000,  0.0368689382985000,  0.0372739666530000,
         0.0368843413785000,  0.0357269685465000,  0.0338477297235000,
         0.0313098751350000,  0.0281919416625000,  0.0245852673990000,
         0.0205911836130000,  0.0163179747885000,  0.0118777027215000,
         0.0073829953428000,  0.0029438974488000, -0.0013351213837500,
       -0.0053579131914000, -0.0090390743751000, -0.0123059777610000,
       -0.0151003614300000, -0.0173794372290000, -0.0191164972845000,
       -0.0203010142335000, -0.0209382477150000, -0.0210483837795000,
       -0.0206652492585000, -0.0198346569960000, -0.0186124452360000,
       -0.0170622853170000, -0.0152533364445000, -0.0132578279295000,
       -0.0111486518451000, -0.0089970411415500, -0.0068704095190500,
       -0.0048304154398500, -0.0029313066436500, -0.0012185888022000,
         0.0002719504441500,  0.0015148437496500,  0.0024951680754000,
         0.0032083985934000,  0.0036599136535500,  0.0038641826454000,
         0.0038436787620000,  0.0036275667813000,  0.0032502214552500,
         0.0027496364164500,  0.0021657848173500,  0.0015389921431500,
         0.0009083790269400,  0.0003104270134350, -0.0002222863080900,
       -0.0006621443390100, -0.0009873112095000, -0.0011822945904000,
       -0.0012382421089500, -0.0011529719470500, -0.0009307480389900,
       -0.0005818191710100, -0.0001217492741850,  0.0004294271739450,
         0.0010481855653500,  0.0017085848356500,  0.0023833900975500,
         0.0030451997037000,  0.0036675340663500,  0.0042258464787000,
         0.0046984206423000,  0.0050671256443500,  0.0053180050654500,
         0.0054416847408000,  0.0054335905239000,  0.0052939756138500,
         0.0050277635562000,  0.0046442203846500,  0.0041564750073000,
         0.0035809120116000,  0.0029364650007000,  0.0022438412419500,
         0.0015247098751500,  0.0008008858149600,  0.0000935406080070,
       -0.0005775309736350, -0.0011945630235000, -0.0017423679157500,
       -0.0022087664445000, -0.0025848874821000, -0.0028653312765000,
       -0.0030481960393500, -0.0031349729565000, -0.0031303193229000,
       -0.0030417239737500, -0.0028790827527000, -0.0026542043913000,
       -0.0023802689872500, -0.0020712621814500, -0.0017414081569500,
       -0.0014046231276000, -0.0010740099631800, -0.0007614112159500,
       -0.0004770353383950, -0.0002291669976750, -0.0000239686391175,
         0.0001346235013200,  0.0002449096372800,  0.0003073473422250,
         0.0003243909079950,  0.0003002597898300,  0.0002406491599050,
         0.0001523972511600,  0.0000431252116680, -0.0000791344562085,
       -0.0002063051321100, -0.0003306142166250, -0.0004449088851900,
       -0.0005429281911900, -0.0006195225775200, -0.0006708144839550,
       -0.0006942964932750, -0.0006888662249700, -0.0006547998279900,
       -0.0005936684372850, -0.0005082040702200, -0.0004021232661600,
       -0.0002799181123200, -0.0001466251756200, -0.0000075832779215,
         0.0001318090469850,  0.0002663261092800,  0.0003911282656050,
         0.0005019477239700,  0.0005952404558100,  0.0006682995442200,
         0.0007193271231300,  0.0007474640712000,  0.0007527783948300,
         0.0007362150295500,  0.0006995112940200,  0.0006450834748050,
         0.0005758910133900,  0.0004952853859800,  0.0004068510461400,
         0.0003142457760750,  0.0002210473938750,  0.0001306131299550,
         0.0000459570809775, -0.0000303499775040, -0.0000962553202380,
       -0.0001502717947500, -0.0001914976879200, -0.0002196097468950,
       -0.0002348313544500, -0.0002378788646850, -0.0002298899052450,
       -0.0002123381059800, -0.0001869390519150, -0.0001555523796750,
       -0.0001200848706750, -0.0000823990177395, -0.0000442310691900,
       -0.0000071218240170,  0.0000276373038480,  0.0000590413474035,
         0.0000863912662305,  0.0001092960423555,  0.0001276584320550,
         0.0001416461727450,  0.0001516510668750,  0.0001582388484600,
         0.0001620930511200,  0.0001639562416800,  0.0001645719375300,
         0.0001646303470350,  0.0001647207096150,  0.0001652925685950,
         0.0001666277047050,  0.0001688238632850,  0.0001717907221800,
         0.0001752579051300,  0.0001787941963500,  0.0001818365610600,
         0.0001837271285850,  0.0001837558800000,  0.0001812066055800,
         0.0001754035529400,  0.0001657562306400,  0.0001517999775600,
         0.0001332302109600,  0.0001099285811085,  0.0000819797661375,
         0.0000496780994325,  0.0000135237684120, -0.0000257911561215,
       -0.0000674061016860, -0.0001103235751695, -0.0001534473563700,
       -0.0001956254223000, -0.0002356955277600, -0.0002725312913400,
       -0.0003050866283850, -0.0003324365467500, -0.0003538124770950,
       -0.0003686306593200, -0.0003765124451550, -0.0003772957869450,
       -0.0003710376157950, -0.0003580072442100, -0.0003386713360800,
       -0.0003136713737850, -0.0002837948444100, -0.0002499416431050,
       -0.0002130873440850, -0.0001742450659950, -0.0001344276803100,
       -0.0000946119980190, -0.0000557064174975, -0.0000185232997950,
         0.0000162429636600,  0.0000480315241560,  0.0000764239658490,
         0.0001011465222075,  0.0001220659497750,  0.0001391796783300,
         0.0001526011005750,  0.0001625410617600,  0.0001692867179850,
         0.0001731790194750,  0.0001745900321550,  0.0001739012837100,
         0.0001714841470650,  0.0001676831298450,  0.0001628027027550,
         0.0001570980849900,  0.0001507701252750,  0.0001439642161650,
         0.0001367729008800,  0.0001292416933500,  0.0001213774219350,
         0.0001131583453770,  0.0001045451808555,  0.0000954922336830,
         0.0000859578151740,  0.0000759132614625,  0.0000653499838530,
         0.0000542841514215,  0.0000427587911520,  0.0000308432795055,
         0.0000186303953220,  0.0000062312709459
    },
    {   /* 48 kHz Bandpass coefficients */
       -0.0000249715636170, -0.0000733002583005, -0.0001168484266950,
       -0.0001526359827300, -0.0001779852378150, -0.0001906261803600,
       -0.0001887867423750, -0.0001712647559700, -0.0001374789131100,
       -0.0000874968717315, -0.0000220394146665,  0.0000575394797670,
         0.0001492959802950,  0.0002507615891550,  0.0003590278195350,
         0.0004708473011550,  0.0005827476339300,  0.0006911538803400,
         0.0007925152169550,  0.0008834311840200,  0.0009607729177200,
         0.0010217949922950,  0.0010642338121800,  0.0010863889863750,
         0.0010871847744450,  0.0010662093796200,  0.0010237306995300,
         0.0009606880252200,  0.0008786600014500,  0.0007798100933700,
         0.0006668115889050,  0.0005427549088500,  0.0004110406550250,
         0.0002752623327300,  0.0001390830556500,  0.0000061107386340,
       -0.0001202236531650, -0.0002367803846100, -0.0003408136116000,
       -0.0004300587418050, -0.0005028013717650, -0.0005579254122750,
       -0.0005949387455550, -0.0006139756634550, -0.0006157761594600,
       -0.0006016430527800, -0.0005733787405500, -0.0005332041364650,
       -0.0004836630240750, -0.0004275156039000, -0.0003676254120000,
       -0.0003068440163250, -0.0002478979849500, -0.0001932825359850,
       -0.0001451659647900, -0.0001053085838805, -0.0000749992847835,
       -0.0000550121800305, -0.0000455849749740, -0.0000464198767725,
       -0.0000567069569220, -0.0000751689940155, -0.0001001259734475,
       -0.0001295766271800, -0.0001612937148900, -0.0001929291660450,
       -0.0002221248067500, -0.0002466241169700, -0.0002643804112950,
       -0.0002736569035200, -0.0002731144462200, -0.0002618831338200,
       -0.0002396145986850, -0.0002065125562500, -0.0001633399833450,
       -0.0001114022563500, -0.0000525064990065,  0.0000111016214694,
         0.0000768215078400,  0.0001417986489150,  0.0002030392772100,
         0.0002575343116500,  0.0003023877271800,  0.0003349442781300,
         0.0003529113726600,  0.0003544700278350,  0.0003383701721400,
         0.0003040060427250,  0.0002514681407700,  0.0001815690099300,
         0.0000958411057065, -0.0000034939630110, -0.0001135844254545,
       -0.0002310340597950, -0.0003520120480800, -0.0004723833887850,
       -0.0005878553858100, -0.0006941350057950, -0.0007870913311800,
       -0.0008629169622150, -0.0009182821494000, -0.0009504754759500,
       -0.0009575253083550, -0.0009382967713350, -0.0008925598039050,
       -0.0008210248327050, -0.0007253437017750, -0.0006080747788500,
       -0.0004726124749500, -0.0003230827365150, -0.0001642074588000,
       -0.0000011419627030,  0.0001607091358950,  0.0003158913831150,
         0.0004591082184150,  0.0005854293960900,  0.0006904922720850,
         0.0007706880985650,  0.0008233258456500,  0.0008467666156950,
         0.0008405226048450,  0.0008053156650000,  0.0007430918752950,
         0.0006569900244600,  0.0005512635016350,  0.0004311568441950,
         0.0003027398497200,  0.0001727038132050,  0.0000481260126270,
       -0.0000637900998735, -0.0001559903868600, -0.0002218517197050,
       -0.0002554598427150, -0.0002518731796350, -0.0002073624606900,
       -0.0001196166071100,  0.0000120938780655,  0.0001868035068900,
         0.0004017944272650,  0.0006525992977350,  0.0009330667014900,
         0.0012354892357500,  0.0015507922815000,  0.0018687791083500,
         0.0021784261768500,  0.0024682200543000,  0.0027265261716000,
         0.0029419777002000,  0.0031038720867000,  0.0032025619048500,
         0.0032298264652500,  0.0031792108540500,  0.0030463195570500,
         0.0028290533040000,  0.0025277788074000,  0.0021454234609500,
         0.0016874890032000,  0.0011619809355000,  0.0005792530047150,
       -0.0000482309645895, -0.0007062127645650, -0.0013790252206500,
       -0.0020500368504000, -0.0027021429666000, -0.0033182884927500,
       -0.0038820063051000, -0.0043779536031000, -0.0047924287141500,
       -0.0051138503724000, -0.0053331826663500, -0.0054442896469500,
       -0.0054442057477500, -0.0053333102476500, -0.0051153971599500,
       -0.0047976345186000, -0.0043904112367500, -0.0039070725540000,
       -0.0033635494893000, -0.0027778909042500, -0.0021697103620500,
       -0.0015595633053000, -0.0009682726676700, -0.0004162233664050,
         0.0000773521544565,  0.0004950741780600,  0.0008220783139800,
         0.0010466174160750,  0.0011605809831000,  0.0011599121919000,
         0.0010449051782400,  0.0008203687257150,  0.0004956459827550,
         0.0000844843437900, -0.0003952459549500, -0.0009219811581750,
       -0.0014710331097000, -0.0020152853721000, -0.0025259990101500,
       -0.0029737069824000, -0.0033291721270500, -0.0035643814090500,
       -0.0036535466467500, -0.0035740810066500, -0.0033075199773000,
       -0.0028403565382500, -0.0021647614527000, -0.0012791624076000,
       -0.0001886589901350,  0.0010947453328350,  0.0025521081316500,
         0.0041577183994500,  0.0058794750514500,  0.0076794702253500,
         0.0095147678934000,  0.0113383621659000,  0.0131002941300000,
         0.0147489010515000,  0.0162321655650000,  0.0174991324200000,
         0.0185013520230000,  0.0191943129840000,  0.0195388232655000,
         0.0195022983540000,  0.0190599192630000,  0.0181956237540000,
         0.0169028991285000,  0.0151853481780000,  0.0130570075020000,
         0.0105424023474000,  0.0076763287870500,  0.0045033630873000,
         0.0010771034123850, -0.0025408420075500, -0.0062820996315000,
       -0.0100729807563000, -0.0138361035120000, -0.0174921480195000,
       -0.0209617009140000, -0.0241671446940000, -0.0270345414570000,
       -0.0294954647295000, -0.0314887288485000, -0.0329619722355000,
       -0.0338730504420000, -0.0341912007360000, -0.0338979465825000,
       -0.0329877141825000, -0.0314681447850000, -0.0293600884500000,
       -0.0266972791470000, -0.0235256960400000, -0.0199026234330000,
       -0.0158954328225000, -0.0115801150080000, -0.0070395977190000,
       -0.0023618916090000,  0.0023618916090000,  0.0070395977190000,
         0.0115801150080000,  0.0158954328225000,  0.0199026234330000,
         0.0235256960400000,  0.0266972791470000,  0.0293600884500000,
         0.0314681447850000,  0.0329877141825000,  0.0338979465825000,
         0.0341912007360000,  0.0338730504420000,  0.0329619722355000,
         0.0314887288485000,  0.0294954647295000,  0.0270345414570000,
         0.0241671446940000,  0.0209617009140000,  0.0174921480195000,
         0.0138361035120000,  0.0100729807563000,  0.0062820996315000,
         0.0025408420075500, -0.0010771034123850, -0.0045033630873000,
       -0.0076763287870500, -0.0105424023474000, -0.0130570075020000,
       -0.0151853481780000, -0.0169028991285000, -0.0181956237540000,
       -0.0190599192630000, -0.0195022983540000, -0.0195388232655000,
       -0.0191943129840000, -0.0185013520230000, -0.0174991324200000,
       -0.0162321655650000, -0.0147489010515000, -0.0131002941300000,
       -0.0113383621659000, -0.0095147678934000, -0.0076794702253500,
       -0.0058794750514500, -0.0041577183994500, -0.0025521081316500,
       -0.0010947453328350,  0.0001886589901350,  0.0012791624076000,
         0.0021647614527000,  0.0028403565382500,  0.0033075199773000,
         0.0035740810066500,  0.0036535466467500,  0.0035643814090500,
         0.0033291721270500,  0.0029737069824000,  0.0025259990101500,
         0.0020152853721000,  0.0014710331097000,  0.0009219811581750,
         0.0003952459549500, -0.0000844843437900, -0.0004956459827550,
       -0.0008203687257150, -0.0010449051782400, -0.0011599121919000,
       -0.0011605809831000, -0.0010466174160750, -0.0008220783139800,
       -0.0004950741780600, -0.0000773521544565,  0.0004162233664050,
         0.0009682726676700,  0.0015595633053000,  0.0021697103620500,
         0.0027778909042500,  0.0033635494893000,  0.0039070725540000,
         0.0043904112367500,  0.0047976345186000,  0.0051153971599500,
         0.0053333102476500,  0.0054442057477500,  0.0054442896469500,
         0.0053331826663500,  0.0051138503724000,  0.0047924287141500,
         0.0043779536031000,  0.0038820063051000,  0.0033182884927500,
         0.0027021429666000,  0.0020500368504000,  0.0013790252206500,
         0.0007062127645650,  0.0000482309645895, -0.0005792530047150,
       -0.0011619809355000, -0.0016874890032000, -0.0021454234609500,
       -0.0025277788074000, -0.0028290533040000, -0.0030463195570500,
       -0.0031792108540500, -0.0032298264652500, -0.0032025619048500,
       -0.0031038720867000, -0.0029419777002000, -0.0027265261716000,
       -0.0024682200543000, -0.0021784261768500, -0.0018687791083500,
       -0.0015507922815000, -0.0012354892357500, -0.0009330667014900,
       -0.0006525992977350, -0.0004017944272650, -0.0001868035068900,
       -0.0000120938780655,  0.0001196166071100,  0.0002073624606900,
         0.0002518731796350,  0.0002554598427150,  0.0002218517197050,
         0.0001559903868600,  0.0000637900998735, -0.0000481260126270,
       -0.0001727038132050, -0.0003027398497200, -0.0004311568441950,
       -0.0005512635016350, -0.0006569900244600, -0.0007430918752950,
       -0.0008053156650000, -0.0008405226048450, -0.0008467666156950,
       -0.0008233258456500, -0.0007706880985650, -0.0006904922720850,
       -0.0005854293960900, -0.0004591082184150, -0.0003158913831150,
       -0.0001607091358950,  0.0000011419627030,  0.0001642074588000,
         0.0003230827365150,  0.0004726124749500,  0.0006080747788500,
         0.0007253437017750,  0.0008210248327050,  0.0008925598039050,
         0.0009382967713350,  0.0009575253083550,  0.0009504754759500,
         0.0009182821494000,  0.0008629169622150,  0.0007870913311800,
         0.0006941350057950,  0.0005878553858100,  0.0004723833887850,
         0.0003520120480800,  0.0002310340597950,  0.0001135844254545,
         0.0000034939630110, -0.0000958411057065, -0.0001815690099300,
       -0.0002514681407700, -0.0003040060427250, -0.0003383701721400,
       -0.0003544700278350, -0.0003529113726600, -0.0003349442781300,
       -0.0003023877271800, -0.0002575343116500, -0.0002030392772100,
       -0.0001417986489150, -0.0000768215078400, -0.0000111016214694,
         0.0000525064990065,  0.0001114022563500,  0.0001633399833450,
         0.0002065125562500,  0.0002396145998400,  0.0002618831338200,
         0.0002731144462200,  0.0002736569035200,  0.0002643804112950,
         0.0002466241169700,  0.0002221248067500,  0.0001929291660450,
         0.0001612937148900,  0.0001295766271800,  0.0001001259734475,
         0.0000751689940155,  0.0000567069569220,  0.0000464198767725,
         0.0000455849749740,  0.0000550121800305,  0.0000749992847835,
         0.0001053085838805,  0.0001451659647900,  0.0001932825359850,
         0.0002478979849500,  0.0003068440163250,  0.0003676254120000,
         0.0004275156039000,  0.0004836630240750,  0.0005332041364650,
         0.0005733787405500,  0.0006016430527800,  0.0006157761594600,
         0.0006139756634550,  0.0005949387455550,  0.0005579254122750,
         0.0005028013717650,  0.0004300587418050,  0.0003408136116000,
         0.0002367803846100,  0.0001202236531650, -0.0000061107386340,
       -0.0001390830556500, -0.0002752623327300, -0.0004110406550250,
       -0.0005427549088500, -0.0006668115889050, -0.0007798100933700,
       -0.0008786600014500, -0.0009606880263750, -0.0010237306995300,
       -0.0010662093796200, -0.0010871847744450, -0.0010863889863750,
       -0.0010642338121800, -0.0010217949922950, -0.0009607729177200,
       -0.0008834311840200, -0.0007925152169550, -0.0006911538803400,
       -0.0005827476339300, -0.0004708473011550, -0.0003590278195350,
       -0.0002507615891550, -0.0001492959802950, -0.0000575394797670,
         0.0000220394146665,  0.0000874968717315,  0.0001374789131100,
         0.0001712647559700,  0.0001887867423750,  0.0001906261803600,
         0.0001779852378150,  0.0001526359827300,  0.0001168484266950,
         0.0000733002583005,  0.0000249715636170
    },
    {   /* 96 kHz Bandpass coefficients */
       -0.0000308211353835, -0.0000920151020250, -0.0001518684505800,
       -0.0002095017078000, -0.0002640566878950, -0.0003147047372700,
       -0.0003606547490700, -0.0004011608289150, -0.0004355295933450,
       -0.0004631270004900, -0.0004833846736950, -0.0004958056557300,
       -0.0004999695496950, -0.0004955369865600, -0.0004822533985500,
       -0.0004599520475550, -0.0004285562970150, -0.0003880810833900,
       -0.0003386335929900, -0.0002804131303050, -0.0002137101651300,
       -0.0001389045792750, -0.0000564631132065,  0.0000330639648570,
         0.0001290469384050,  0.0002307814451250,  0.0003374939671950,
         0.0004483479508200,  0.0005624505301800,  0.0006788597773650,
         0.0007965924385650,  0.0009146320779750,  0.0010319375843700,
         0.0011474519387100,  0.0012601112139000,  0.0013688536554000,
         0.0014726289270000,  0.0015704071845000,  0.0016611881979000,
         0.0017440101871500,  0.0018179585077500,  0.0018821739321000,
         0.0019358605728000,  0.0019782933670500,  0.0020088249951000,
         0.0020268922212000,  0.0020320215993000,  0.0020238344857500,
         0.0020020512897000,  0.0019664949265500,  0.0019170935437500,
         0.0018538822764000,  0.0017770042174500,  0.0016867104870000,
         0.0015833594238000,  0.0014674148643000,  0.0013394435554500,
         0.0012001117128000,  0.0010501807296750,  0.0008905020836250,
         0.0007220114193600,  0.0005457219502350,  0.0003627171447900,
         0.0001741427803500, -0.0000188015641275, -0.0002148715407300,
       -0.0004127874885750, -0.0006112442640150, -0.0008089213590150,
       -0.0010044932158800, -0.0011966396904000, -0.0013840565161500,
       -0.0015654658057500, -0.0017396262922500, -0.0019053435093000,
       -0.0020614795509000, -0.0022069625539500, -0.0023407956033000,
       -0.0024620652210000, -0.0025699491741000, -0.0026637236472000,
       -0.0027427696296000, -0.0028065785748000, -0.0028547571129000,
       -0.0028870309429500, -0.0029032477897500, -0.0029033793442500,
       -0.0028875222453000, -0.0028558980334500, -0.0028088521345500,
       -0.0027468517461000, -0.0026704827880500, -0.0025804458025500,
       -0.0024775509412500, -0.0023627119131000, -0.0022369391814000,
       -0.0021013321098000, -0.0019570705192500, -0.0018054053325000,
       -0.0016476486526500, -0.0014851631833500, -0.0013193511408000,
       -0.0011516428111650, -0.0009834845824650, -0.0008163269071650,
       -0.0006516119864100, -0.0004907614323150, -0.0003351639533550,
       -0.0001861631737350, -0.0000450456888420,  0.0000869705576355,
         0.0002087474627700,  0.0003192374331300,  0.0004174934448300,
         0.0005026783931400,  0.0005740736705550,  0.0006310868718000,
         0.0006732585702150,  0.0007002680904450,  0.0007119382277700,
         0.0007082388505500,  0.0006892893546000,  0.0006553599279150,
         0.0006068716003350,  0.0005443950654450,  0.0004686482596950,
         0.0003804927114450,  0.0002809286610900,  0.0001710889742100,
         0.0000522318902490, -0.0000742673700615, -0.0002069260809000,
       -0.0003441645091500, -0.0004843173812400, -0.0006256462235100,
       -0.0007663525196250, -0.0009045915705750, -0.0010384869806850,
       -0.0011661456576000, -0.0012856732003500, -0.0013951896535500,
       -0.0014928453309000, -0.0015768368269500, -0.0016454228752500,
       -0.0016969400794500, -0.0017298183556500, -0.0017425959012000,
       -0.0017339336899500, -0.0017026292398500, -0.0016476297222000,
       -0.0015680440314000, -0.0014631540693000, -0.0013324247475000,
       -0.0011755129732500, -0.0009922752955500, -0.0007827742310850,
       -0.0005472832110900, -0.0002862900417300, -0.0000004988672616,
         0.0003091694147850,  0.0006415783166100,  0.0009953785137450,
         0.0013690121907000,  0.0017607190062000,  0.0021685435579500,
         0.0025903445106000,  0.0030238051305000,  0.0034664452977000,
         0.0039156349386000,  0.0043686087406500,  0.0048224821491000,
         0.0052742684610000,  0.0057208969471500,  0.0061592319904500,
         0.0065860929288000,  0.0069982746718500,  0.0073925687913000,
         0.0077657850847500,  0.0081147734398500,  0.0084364456869000,
         0.0087277976247000,  0.0089859307114500,  0.0092080735593000,
         0.0093916028629500,  0.0095340637507500,  0.0096331894081500,
         0.0096869197309500,  0.0096934189506000,  0.0096510921160500,
         0.0095586002242500,  0.0094148739877500,  0.0092191260084000,
         0.0089708613687000,  0.0086698864675500,  0.0083163160773000,
         0.0079105785412500,  0.0074534189730000,  0.0069459005731500,
         0.0063894038785500,  0.0057856240365000,  0.0051365659537500,
         0.0044445375744000,  0.0037121410095000,  0.0029422617724500,
         0.0021380561086500,  0.0013029364078500,  0.0004405548816900,
       -0.0004452144543000, -0.0013502954503500, -0.0022704309358500,
       -0.0032012052187500, -0.0041380678300500, -0.0050763583678500,
       -0.0060113322885000, -0.0069381875293500, -0.0078520917205500,
       -0.0087482099397000, -0.0096217326859500, -0.0104679040504500,
       -0.0112820498406000, -0.0120596054040000, -0.0127961432445000,
       -0.0134873995410000, -0.0141293010705000, -0.0147179895555000,
       -0.0152498463810000, -0.0157215155790000, -0.0161299250805000,
       -0.0164723066970000, -0.0167462150625000, -0.0169495433415000,
       -0.0170805385905000, -0.0171378141165000, -0.0171203602185000,
       -0.0170275523880000, -0.0168591576615000, -0.0166153386630000,
       -0.0162966546435000, -0.0159040617120000, -0.0154389087930000,
       -0.0149029326600000, -0.0142982506590000, -0.0136273497360000,
       -0.0128930753490000, -0.0120986164530000, -0.0112474893300000,
       -0.0103435193053500, -0.0093908205006000, -0.0083937738885000,
       -0.0073570037194500, -0.0062853525273000, -0.0051838547607000,
       -0.0040577092594500, -0.0029122507953000, -0.0017529206772000,
       -0.0005852367998400,  0.0005852367998400,  0.0017529206772000,
         0.0029122507953000,  0.0040577092594500,  0.0051838547607000,
         0.0062853525273000,  0.0073570037194500,  0.0083937738885000,
         0.0093908205006000,  0.0103435193053500,  0.0112474893300000,
         0.0120986164530000,  0.0128930753490000,  0.0136273497360000,
         0.0142982506590000,  0.0149029326600000,  0.0154389087930000,
         0.0159040617120000,  0.0162966546435000,  0.0166153386630000,
         0.0168591576615000,  0.0170275523880000,  0.0171203602185000,
         0.0171378141165000,  0.0170805385905000,  0.0169495433415000,
         0.0167462150625000,  0.0164723066970000,  0.0161299250805000,
         0.0157215155790000,  0.0152498463810000,  0.0147179895555000,
         0.0141293010705000,  0.0134873995410000,  0.0127961432445000,
         0.0120596054040000,  0.0112820498406000,  0.0104679040504500,
         0.0096217326859500,  0.0087482099397000,  0.0078520917205500,
         0.0069381875293500,  0.0060113322885000,  0.0050763583678500,
         0.0041380678300500,  0.0032012052187500,  0.0022704309358500,
         0.0013502954503500,  0.0004452144543000, -0.0004405548816900,
       -0.0013029364078500, -0.0021380561086500, -0.0029422617724500,
       -0.0037121410095000, -0.0044445375744000, -0.0051365659537500,
       -0.0057856240365000, -0.0063894038785500, -0.0069459005731500,
       -0.0074534189730000, -0.0079105785412500, -0.0083163160773000,
       -0.0086698864675500, -0.0089708613687000, -0.0092191260084000,
       -0.0094148739877500, -0.0095586002242500, -0.0096510921160500,
       -0.0096934189506000, -0.0096869197309500, -0.0096331894081500,
       -0.0095340637507500, -0.0093916028629500, -0.0092080735593000,
       -0.0089859307114500, -0.0087277976247000, -0.0084364456869000,
       -0.0081147734398500, -0.0077657850847500, -0.0073925687913000,
       -0.0069982746718500, -0.0065860929288000, -0.0061592319904500,
       -0.0057208969471500, -0.0052742684610000, -0.0048224821491000,
       -0.0043686087406500, -0.0039156349386000, -0.0034664452977000,
       -0.0030238051305000, -0.0025903445106000, -0.0021685435579500,
       -0.0017607190062000, -0.0013690121907000, -0.0009953785137450,
       -0.0006415783166100, -0.0003091694147850,  0.0000004988672616,
         0.0002862900417300,  0.0005472832110900,  0.0007827742310850,
         0.0009922752955500,  0.0011755129732500,  0.0013324247475000,
         0.0014631540693000,  0.0015680440314000,  0.0016476297222000,
         0.0017026292398500,  0.0017339336899500,  0.0017425959012000,
         0.0017298183556500,  0.0016969400794500,  0.0016454228752500,
         0.0015768368269500,  0.0014928453309000,  0.0013951896535500,
         0.0012856732003500,  0.0011661456576000,  0.0010384869806850,
         0.0009045915705750,  0.0007663525196250,  0.0006256462235100,
         0.0004843173812400,  0.0003441645091500,  0.0002069260809000,
         0.0000742673700615, -0.0000522318902490, -0.0001710889742100,
       -0.0002809286610900, -0.0003804927114450, -0.0004686482596950,
       -0.0005443950654450, -0.0006068716003350, -0.0006553599279150,
       -0.0006892893546000, -0.0007082388505500, -0.0007119382277700,
       -0.0007002680904450, -0.0006732585702150, -0.0006310868718000,
       -0.0005740736705550, -0.0005026783931400, -0.0004174934448300,
       -0.0003192374331300, -0.0002087474627700, -0.0000869705576355,
         0.0000450456888420,  0.0001861631737350,  0.0003351639533550,
         0.0004907614323150,  0.0006516119864100,  0.0008163269071650,
         0.0009834845824650,  0.0011516428111650,  0.0013193511408000,
         0.0014851631833500,  0.0016476486526500,  0.0018054053325000,
         0.0019570705192500,  0.0021013321098000,  0.0022369391814000,
         0.0023627119131000,  0.0024775509412500,  0.0025804458025500,
         0.0026704827880500,  0.0027468517461000,  0.0028088521345500,
         0.0028558980334500,  0.0028875222453000,  0.0029033793442500,
         0.0029032477897500,  0.0028870309429500,  0.0028547571129000,
         0.0028065785748000,  0.0027427696296000,  0.0026637236472000,
         0.0025699491741000,  0.0024620652210000,  0.0023407956033000,
         0.0022069625539500,  0.0020614795509000,  0.0019053435093000,
         0.0017396262922500,  0.0015654658057500,  0.0013840565161500,
         0.0011966396904000,  0.0010044932158800,  0.0008089213590150,
         0.0006112442640150,  0.0004127874885750,  0.0002148715407300,
         0.0000188015641275, -0.0001741427803500, -0.0003627171447900,
       -0.0005457219502350, -0.0007220114193600, -0.0008905020836250,
       -0.0010501807296750, -0.0012001117128000, -0.0013394435554500,
       -0.0014674148643000, -0.0015833594238000, -0.0016867104870000,
       -0.0017770042174500, -0.0018538822764000, -0.0019170935437500,
       -0.0019664949265500, -0.0020020512897000, -0.0020238344857500,
       -0.0020320215993000, -0.0020268922212000, -0.0020088249951000,
       -0.0019782933670500, -0.0019358605728000, -0.0018821739321000,
       -0.0018179585077500, -0.0017440101871500, -0.0016611881979000,
       -0.0015704071845000, -0.0014726289270000, -0.0013688536554000,
       -0.0012601112139000, -0.0011474519387100, -0.0010319375843700,
       -0.0009146320779750, -0.0007965924385650, -0.0006788597773650,
       -0.0005624505301800, -0.0004483479508200, -0.0003374939671950,
       -0.0002307814451250, -0.0001290469384050, -0.0000330639648570,
         0.0000564631132065,  0.0001389045792750,  0.0002137101651300,
         0.0002804131303050,  0.0003386335929900,  0.0003880810833900,
         0.0004285562970150,  0.0004599520475550,  0.0004822533985500,
         0.0004955369865600,  0.0004999695496950,  0.0004958056557300,
         0.0004833846736950,  0.0004631270004900,  0.0004355295933450,
         0.0004011608289150,  0.0003606547490700,  0.0003147047372700,
         0.0002640566878950,  0.0002095017078000,  0.0001518684505800,
         0.0000920151020250,  0.0000308211353835
    }
    };

extern const double BandRjct_1kHz[NUM_FILTER_RATES][FILTER_TAPS] = {
    {   /* 44.1 kHz Bandreject coefficients */
       -0.0002987555760000, -0.0002809147290000, -0.0002621822080000,
       -0.0002440654420000, -0.0002280729490000, -0.0002156131130000,
       -0.0002079006220000, -0.0002058770510000, -0.0002101510040000,
       -0.0002209618200000, -0.0002381691020000, -0.0002612684960000,
       -0.0002894322130000, -0.0003215710160000, -0.0003564128600000,
       -0.0003925921800000, -0.0004287430920000, -0.0004635895320000,
       -0.0004960256410000, -0.0005251804850000, -0.0005504624230000,
       -0.0005715800160000, -0.0005885381880000, -0.0006016102710000,
       -0.0006112884400000, -0.0006182167500000, -0.0006231123590000,
       -0.0006266815010000, -0.0006295372150000, -0.0006321257840000,
       -0.0006346682070000, -0.0006371219180000, -0.0006391664130000,
       -0.0006402146070000, -0.0006394497210000, -0.0006358854040000,
       -0.0006284449460000, -0.0006160537390000, -0.0005977379640000,
       -0.0005727217660000, -0.0005405150550000, -0.0005009845510000,
       -0.0004544017790000, -0.0004014632580000, -0.0003432801460000,
       -0.0002813368310000, -0.0002174203040000, -0.0001535244190000,
       -0.0000917351825000, -0.0000341047817000,  0.0000174768306000,
         0.0000614035700000,  0.0000964590945000,  0.0001218988710000,
         0.0001375019500000,  0.0001435880380000,  0.0001409979230000,
         0.0001310379690000,  0.0001153920460000,  0.0000960067421000,
         0.0000749577720000,  0.0000543070305000,  0.0000359605661000,
         0.0000215378534000,  0.0000122620331000,  0.0000088793579000,
         0.0000116139896000,  0.0000201617071000,  0.0000337231808000,
         0.0000510744678000,  0.0000706695163000,  0.0000907669495000,
         0.0001095714430000,  0.0001253787710000,  0.0001367131710000,
         0.0001424461550000,  0.0001418872130000,  0.0001348389260000,
         0.0001216117550000,  0.0001029968860000,  0.0000801988571000,
         0.0000547329299000,  0.0000282951218000,  0.0000026151433900,
       -0.0000206959020000, -0.0000402905312000, -0.0000552103903000,
       -0.0000649813410000, -0.0000696694154000, -0.0000698918976000,
       -0.0000667812986000, -0.0000619037802000, -0.0000571373508000,
       -0.0000545186125000, -0.0000560696848000, -0.0000636189401000,
       -0.0000786301506000, -0.0001020544860000, -0.0001342184610000,
       -0.0001747585190000, -0.0002226095660000, -0.0002760507260000,
       -0.0003328071150000, -0.0003902019410000, -0.0004453489870000,
       -0.0004953719760000, -0.0005376346630000, -0.0005699640480000,
       -0.0005908489630000, -0.0005995975670000, -0.0005964398450000,
       -0.0005825649950000, -0.0005600882490000, -0.0005319469440000,
       -0.0005017310720000, -0.0004734587810000, -0.0004513118260000,
       -0.0004393495250000, -0.0004412219550000, -0.0004599038240000,
       -0.0004974694240000, -0.0005549265330000, -0.0006321230380000,
       -0.0007277348570000, -0.0008393376730000, -0.0009635586060000,
       -0.0010962976800000, -0.0012330033300000, -0.0013689815800000,
       -0.0014997155500000, -0.0016211705900000, -0.0017300609700000,
       -0.0018240565900000, -0.0019019124600000, -0.0019635097400000,
       -0.0020098035800000, -0.0020426809400000, -0.0020647386200000,
       -0.0020789988800000, -0.0020885852400000, -0.0020963855600000,
       -0.0021047309700000, -0.0021151191000000, -0.0021280073900000,
       -0.0021426974200000, -0.0021573242600000, -0.0021689570100000,
       -0.0021738075100000, -0.0021675350000000, -0.0021456264000000,
       -0.0021038241800000, -0.0020385688500000, -0.0019474200500000,
       -0.0018294202600000, -0.0016853677800000, -0.0015179712200000,
       -0.0013318660100000, -0.0011334829000000, -0.0009307701360000,
       -0.0007327823710000, -0.0005491603630000, -0.0003895355720000,
       -0.0002629010540000, -0.0001769948090000, -0.0001377430120000,
       -0.0001488081530000, -0.0002112812140000, -0.0003235476700000,
       -0.0004813451590000, -0.0006780166990000, -0.0009049485020000,
       -0.0011521667400000, -0.0014090542500000, -0.0016651372700000,
       -0.0019108845700000, -0.0021384581000000, -0.0023423550900000,
       -0.0025198874300000, -0.0026714543000000, -0.0028005782400000,
       -0.0029136915700000, -0.0030196792100000, -0.0031292030700000,
       -0.0032538514000000, -0.0034051722100000, -0.0035936618600000,
       -0.0038277870000000, -0.0041131190500000, -0.0044516560000000,
       -0.0048413953500000, -0.0052762054800000, -0.0057460222900000,
       -0.0062373733500000, -0.0067342065600000, -0.0072189746200000,
       -0.0076739038600000, -0.0080823567700000, -0.0084301844100000,
       -0.0087069590700000, -0.0089069792000000, -0.0090299491600000,
       -0.0090812544900000, -0.0090717791600000, -0.0090172423300000,
       -0.0089370674800000, -0.0088528332900000, -0.0087863913300000,
       -0.0087577672400000, -0.0087829880900000, -0.0088719954400000,
       -0.0090268109600000, -0.0092401169100000, -0.0094943977800000,
       -0.0097617620400000, -0.0100045249000000, -0.0101765878000000,
       -0.0102255972000000, -0.0100958137000000, -0.0097315661900000,
       -0.0090811188500000, -0.0081007385800000, -0.0067587188800000,
       -0.0050391018100000, -0.0029448387500000, -0.0005001461680000,
         0.0022481548200000,  0.0052304794400000,  0.0083556051500000,
         0.0115131169000000,  0.0145771307000000,  0.0174111760000000,
         0.0198740461000000,  0.0218263541000000,  0.0231374831000000,
         0.0236925759000000,  0.0233991918000000,  0.0221932585000000,
         0.0200439667000000,  0.0169573006000000,  0.0129779575000000,
         0.0081894863700000,  0.0027125657900000, -0.0032985611400000,
       -0.0096613806600000, -0.0161719209000000, -0.0226127877000000,
       -0.0287620577000000, -0.0344026095000000, -0.0393314430000000,
       -0.0433685307000000, -0.0463647606000000, -0.0482085739000000,
         0.9511690370000000, -0.0482085739000000, -0.0463647606000000,
       -0.0433685307000000, -0.0393314430000000, -0.0344026095000000,
       -0.0287620577000000, -0.0226127877000000, -0.0161719209000000,
       -0.0096613806600000, -0.0032985611400000,  0.0027125657900000,
         0.0081894863700000,  0.0129779575000000,  0.0169573006000000,
         0.0200439667000000,  0.0221932585000000,  0.0233991918000000,
         0.0236925759000000,  0.0231374831000000,  0.0218263541000000,
         0.0198740461000000,  0.0174111760000000,  0.0145771307000000,
         0.0115131169000000,  0.0083556051500000,  0.0052304794400000,
         0.0022481548200000, -0.0005001461680000, -0.0029448387500000,
       -0.0050391018100000, -0.0067587188800000, -0.0081007385800000,
       -0.0090811188500000, -0.0097315661900000, -0.0100958137000000,
       -0.0102255972000000, -0.0101765878000000, -0.0100045249000000,
       -0.0097617620400000, -0.0094943977800000, -0.0092401169100000,
       -0.0090268109600000, -0.0088719954400000, -0.0087829880900000,
       -0.0087577672400000, -0.0087863913300000, -0.0088528332900000,
       -0.0089370674800000, -0.0090172423300000, -0.0090717791600000,
       -0.0090812544900000, -0.0090299491600000, -0.0089069792000000,
       -0.0087069590700000, -0.0084301844100000, -0.0080823567700000,
       -0.0076739038600000, -0.0072189746200000, -0.0067342065600000,
       -0.0062373733500000, -0.0057460222900000, -0.0052762054800000,
       -0.0048413953500000, -0.0044516560000000, -0.0041131190500000,
       -0.0038277870000000, -0.0035936618600000, -0.0034051722100000,
       -0.0032538514000000, -0.0031292030700000, -0.0030196792100000,
       -0.0029136915700000, -0.0028005782400000, -0.0026714543000000,
       -0.0025198874300000, -0.0023423550900000, -0.0021384581000000,
       -0.0019108845700000, -0.0016651372700000, -0.0014090542500000,
       -0.0011521667400000, -0.0009049485020000, -0.0006780166990000,
       -0.0004813451590000, -0.0003235476700000, -0.0002112812140000,
       -0.0001488081530000, -0.0001377430120000, -0.0001769948090000,
       -0.0002629010540000, -0.0003895355720000, -0.0005491603630000,
       -0.0007327823710000, -0.0009307701360000, -0.0011334829000000,
       -0.0013318660100000, -0.0015179712200000, -0.0016853677800000,
       -0.0018294202600000, -0.0019474200500000, -0.0020385688500000,
       -0.0021038241800000, -0.0021456264000000, -0.0021675350000000,
       -0.0021738075100000, -0.0021689570100000, -0.0021573242600000,
       -0.0021426974200000, -0.0021280073900000, -0.0021151191000000,
       -0.0021047309700000, -0.0020963855600000, -0.0020885852400000,
       -0.0020789988800000, -0.0020647386200000, -0.0020426809400000,
       -0.0020098035800000, -0.0019635097400000, -0.0019019124600000,
       -0.0018240565900000, -0.0017300609700000, -0.0016211705900000,
       -0.0014997155500000, -0.0013689815800000, -0.0012330033300000,
       -0.0010962976800000, -0.0009635586060000, -0.0008393376730000,
       -0.0007277348570000, -0.0006321230380000, -0.0005549265330000,
       -0.0004974694240000, -0.0004599038240000, -0.0004412219550000,
       -0.0004393495250000, -0.0004513118260000, -0.0004734587810000,
       -0.0005017310720000, -0.0005319469440000, -0.0005600882490000,
       -0.0005825649950000, -0.0005964398450000, -0.0005995975670000,
       -0.0005908489630000, -0.0005699640480000, -0.0005376346630000,
       -0.0004953719760000, -0.0004453489870000, -0.0003902019410000,
       -0.0003328071150000, -0.0002760507260000, -0.0002226095660000,
       -0.0001747585190000, -0.0001342184610000, -0.0001020544860000,
       -0.0000786301506000, -0.0000636189401000, -0.0000560696848000,
       -0.0000545186125000, -0.0000571373508000, -0.0000619037802000,
       -0.0000667812986000, -0.0000698918976000, -0.0000696694154000,
       -0.0000649813410000, -0.0000552103903000, -0.0000402905312000,
       -0.0000206959020000,  0.0000026151433900,  0.0000282951218000,
         0.0000547329299000,  0.0000801988571000,  0.0001029968860000,
         0.0001216117550000,  0.0001348389260000,  0.0001418872130000,
         0.0001424461550000,  0.0001367131710000,  0.0001253787710000,
         0.0001095714430000,  0.0000907669495000,  0.0000706695163000,
         0.0000510744678000,  0.0000337231808000,  0.0000201617071000,
         0.0000116139896000,  0.0000088793579100,  0.0000122620331000,
         0.0000215378534000,  0.0000359605661000,  0.0000543070305000,
         0.0000749577720000,  0.0000960067421000,  0.0001153920460000,
         0.0001310379690000,  0.0001409979230000,  0.0001435880380000,
         0.0001375019500000,  0.0001218988710000,  0.0000964590945000,
         0.0000614035700000,  0.0000174768306000, -0.0000341047817000,
       -0.0000917351825000, -0.0001535244190000, -0.0002174203040000,
       -0.0002813368310000, -0.0003432801460000, -0.0004014632580000,
       -0.0004544017790000, -0.0005009845510000, -0.0005405150550000,
       -0.0005727217660000, -0.0005977379640000, -0.0006160537390000,
       -0.0006284449460000, -0.0006358854040000, -0.0006394497210000,
       -0.0006402146070000, -0.0006391664130000, -0.0006371219180000,
       -0.0006346682070000, -0.0006321257840000, -0.0006295372150000,
       -0.0006266815010000, -0.0006231123590000, -0.0006182167500000,
       -0.0006112884400000, -0.0006016102710000, -0.0005885381880000,
       -0.0005715800160000, -0.0005504624230000, -0.0005251804850000,
       -0.0004960256410000, -0.0004635895320000, -0.0004287430920000,
       -0.0003925921800000, -0.0003564128600000, -0.0003215710160000,
       -0.0002894322130000, -0.0002612684960000, -0.0002381691020000,
       -0.0002209618200000, -0.0002101510040000, -0.0002058770510000,
       -0.0002079006220000, -0.0002156131130000, -0.0002280729490000,
       -0.0002440654420000, -0.0002621822080000, -0.0002809147290000,
       -0.0002987555760000,  0.0000000000000000,  0.0000000000000000,
         0.0000000000000000,  0.0000000000000000,  0.0000000000000000,
         0.0000000000000000,  0.0000000000000000
    },
    {   /* 48 kHz Bandreject coefficients */
       -0.0000054108567600, -0.0000161494711000, -0.0000266496661000,
       -0.0000367880307000, -0.0000464919575000, -0.0000557551043000,
       -0.0000646483148000, -0.0000733251391000, -0.0000820213965000,
       -0.0000910485611000, -0.0001007811090000, -0.0001116383310000,
       -0.0001240614510000, -0.0001384872190000, -0.0001553193890000,
       -0.0001748996910000, -0.0001974800120000, -0.0002231975300000,
       -0.0002520544410000, -0.0002839037650000, -0.0003184424320000,
       -0.0003552125040000, -0.0003936109670000, -0.0004329080480000,
       -0.0004722735530000, -0.0005108101900000, -0.0005475924390000,
       -0.0005817090940000, -0.0006123073310000, -0.0006386359330000,
       -0.0006600852630000, -0.0006762216200000, -0.0006868138410000,
       -0.0006918503560000, -0.0006915453740000, -0.0006863334500000,
       -0.0006768523020000, -0.0006639144780000, -0.0006484690650000,
       -0.0006315553380000, -0.0006142507200000, -0.0005976158920000,
       -0.0005826401070000, -0.0005701898960000, -0.0005609641960000,
       -0.0005554586780000, -0.0005539415490000, -0.0005564424780000,
       -0.0005627555340000, -0.0005724561860000, -0.0005849315530000,
       -0.0005994222380000, -0.0006150733230000, -0.0006309914610000,
       -0.0006463045570000, -0.0006602202640000, -0.0006720795360000,
       -0.0006814016880000, -0.0006879179040000, -0.0006915908040000,
       -0.0006926185640000, -0.0006914230190000, -0.0006886223050000,
       -0.0006849895590000, -0.0006814002250000, -0.0006787713280000,
       -0.0006779966960000, -0.0006798825140000, -0.0006850876680000,
       -0.0006940731560000, -0.0007070643370000, -0.0007240290010000,
       -0.0007446732820000, -0.0007684562310000, -0.0007946226160000,
       -0.0008222522470000, -0.0008503228960000, -0.0008777828530000,
       -0.0009036283460000, -0.0009269805250000, -0.0009471565480000,
       -0.0009637295150000, -0.0009765725350000, -0.0009858831670000,
       -0.0009921856200000, -0.0009963095870000, -0.0009993461060000,
       -0.0010025824600000, -0.0010074196600000, -0.0010152773500000,
       -0.0010274920900000, -0.0010452157500000, -0.0010693207600000,
       -0.0011003192100000, -0.0011383017500000, -0.0011829014400000,
       -0.0012332861700000, -0.0012881814800000, -0.0013459237400000,
       -0.0014045415000000, -0.0014618611600000, -0.0015156309400000,
       -0.0015636561400000, -0.0016039372700000, -0.0016348024500000,
       -0.0016550252700000, -0.0016639201800000, -0.0016614085000000,
       -0.0016480497500000, -0.0016250353700000, -0.0015941439100000,
       -0.0015576594100000, -0.0015182571700000, -0.0014788630900000,
       -0.0014424951400000, -0.0014120962300000, -0.0013903692300000,
       -0.0013796245400000, -0.0013816502300000, -0.0013976136300000,
       -0.0014280009800000, -0.0014725999900000, -0.0015305266600000,
       -0.0016002956000000, -0.0016799292700000, -0.0017670995900000,
       -0.0018592924800000, -0.0019539843900000, -0.0020488185400000,
       -0.0021417685400000, -0.0022312774900000, -0.0023163618500000,
       -0.0023966719500000, -0.0024725033500000, -0.0025447568600000,
       -0.0026148483500000, -0.0026845733800000, -0.0027559346300000,
       -0.0028309435400000, -0.0029114094900000, -0.0029987315700000,
       -0.0030937082700000, -0.0031963800200000, -0.0033059178400000,
       -0.0034205687400000, -0.0035376651800000, -0.0036537018000000,
       -0.0037644779900000, -0.0038653007300000, -0.0039512370700000,
       -0.0040174024800000, -0.0040592675200000, -0.0040729635800000,
       -0.0040555674500000, -0.0040053447000000, -0.0039219340100000,
       -0.0038064571100000, -0.0036615436300000, -0.0034912649100000,
       -0.0033009767900000, -0.0030970770400000, -0.0028866891600000,
       -0.0026772895600000, -0.0024762995200000, -0.0022906664700000,
       -0.0021264612000000, -0.0019885172500000, -0.0018801375300000,
       -0.0018028896900000, -0.0017565067600000, -0.0017389037400000,
       -0.0017463134000000, -0.0017735369100000, -0.0018142975100000,
       -0.0018616777900000, -0.0019086150700000, -0.0019484244700000,
       -0.0019753160700000, -0.0019848713900000, -0.0019744459400000,
       -0.0019434674200000, -0.0018936054200000, -0.0018287950700000,
       -0.0017551067200000, -0.0016804629800000, -0.0016142150000000,
       -0.0015665997900000, -0.0015481090500000, -0.0015688079700000,
       -0.0016376472800000, -0.0017618148400000, -0.0019461729600000,
       -0.0021928243100000, -0.0025008433200000, -0.0028662011600000,
       -0.0032819008900000, -0.0037383269600000, -0.0042237987300000,
       -0.0047253040600000, -0.0052293753800000, -0.0057230586500000,
       -0.0061949165400000, -0.0066360004800000, -0.0070407238700000,
       -0.0074075701700000, -0.0077395751000000, -0.0080445323400000,
       -0.0083348855300000, -0.0086272860200000, -0.0089418155400000,
       -0.0093008926600000, -0.0097279035300000, -0.0102456164000000,
       -0.0108744575000000, -0.0116307401000000, -0.0125249477000000,
       -0.0135601787000000, -0.0147308565000000, -0.0160218044000000,
       -0.0174077704000000, -0.0188534680000000, -0.0203141786000000,
       -0.0217369296000000, -0.0230622379000000, -0.0242263737000000,
       -0.0251640720000000, -0.0258115916000000, -0.0261099954000000,
       -0.0260085109000000, -0.0254678142000000, -0.0244630807000000,
       -0.0229866448000000, -0.0210501297000000, -0.0186859231000000,
       -0.0159479100000000, -0.0129114059000000, -0.0096722802800000,
       -0.0063453083200000, -0.0030618463600000,  0.0000330137682000,
         0.0027835815700000,  0.0050266794300000,  0.0065942929600000,
         0.0073151476400000,  0.0070143078100000,  0.0055093696800000,
         0.0026008095800000, -0.0019480345500000, -0.0084504682200000,
       -0.0173755492000000, -0.0295159658000000, -0.0463810747000000,
       -0.0712631325000000, -0.1128584770000000, -0.2033617970000000,
       -0.6336436290000000,  0.6336436290000000,  0.2033617970000000,
         0.1128584770000000,  0.0712631325000000,  0.0463810747000000,
         0.0295159658000000,  0.0173755492000000,  0.0084504682200000,
         0.0019480345500000, -0.0026008095800000, -0.0055093696800000,
       -0.0070143078100000, -0.0073151476400000, -0.0065942929600000,
       -0.0050266794300000, -0.0027835815700000, -0.0000330137682000,
         0.0030618463600000,  0.0063453083200000,  0.0096722802800000,
         0.0129114059000000,  0.0159479100000000,  0.0186859231000000,
         0.0210501297000000,  0.0229866448000000,  0.0244630807000000,
         0.0254678142000000,  0.0260085109000000,  0.0261099954000000,
         0.0258115916000000,  0.0251640720000000,  0.0242263737000000,
         0.0230622379000000,  0.0217369296000000,  0.0203141786000000,
         0.0188534680000000,  0.0174077704000000,  0.0160218044000000,
         0.0147308565000000,  0.0135601787000000,  0.0125249477000000,
         0.0116307401000000,  0.0108744575000000,  0.0102456164000000,
         0.0097279035300000,  0.0093008926600000,  0.0089418155400000,
         0.0086272860200000,  0.0083348855300000,  0.0080445323400000,
         0.0077395751000000,  0.0074075701700000,  0.0070407238700000,
         0.0066360004800000,  0.0061949165400000,  0.0057230586500000,
         0.0052293753800000,  0.0047253040600000,  0.0042237987300000,
         0.0037383269600000,  0.0032819008900000,  0.0028662011600000,
         0.0025008433200000,  0.0021928243100000,  0.0019461729600000,
         0.0017618148400000,  0.0016376472800000,  0.0015688079700000,
         0.0015481090500000,  0.0015665997900000,  0.0016142150000000,
         0.0016804629800000,  0.0017551067200000,  0.0018287950700000,
         0.0018936054200000,  0.0019434674200000,  0.0019744459400000,
         0.0019848713900000,  0.0019753160700000,  0.0019484244700000,
         0.0019086150700000,  0.0018616777900000,  0.0018142975100000,
         0.0017735369100000,  0.0017463134000000,  0.0017389037400000,
         0.0017565067600000,  0.0018028896900000,  0.0018801375300000,
         0.0019885172500000,  0.0021264612000000,  0.0022906664700000,
         0.0024762995200000,  0.0026772895600000,  0.0028866891600000,
         0.0030970770400000,  0.0033009767900000,  0.0034912649100000,
         0.0036615436300000,  0.0038064571100000,  0.0039219340100000,
         0.0040053447000000,  0.0040555674500000,  0.0040729635800000,
         0.0040592675200000,  0.0040174024800000,  0.0039512370700000,
         0.0038653007300000,  0.0037644779900000,  0.0036537018000000,
         0.0035376651800000,  0.0034205687400000,  0.0033059178400000,
         0.0031963800200000,  0.0030937082700000,  0.0029987315700000,
         0.0029114094900000,  0.0028309435400000,  0.0027559346300000,
         0.0026845733800000,  0.0026148483500000,  0.0025447568600000,
         0.0024725033500000,  0.0023966719500000,  0.0023163618500000,
         0.0022312774900000,  0.0021417685400000,  0.0020488185400000,
         0.0019539843900000,  0.0018592924800000,  0.0017670995900000,
         0.0016799292700000,  0.0016002956000000,  0.0015305266600000,
         0.0014725999900000,  0.0014280009800000,  0.0013976136300000,
         0.0013816502300000,  0.0013796245400000,  0.0013903692300000,
         0.0014120962300000,  0.0014424951400000,  0.0014788630900000,
         0.0015182571700000,  0.0015576594100000,  0.0015941439100000,
         0.0016250353700000,  0.0016480497500000,  0.0016614085000000,
         0.0016639201800000,  0.0016550252700000,  0.0016348024500000,
         0.0016039372700000,  0.0015636561400000,  0.0015156309400000,
         0.0014618611600000,  0.0014045415000000,  0.0013459237400000,
         0.0012881814800000,  0.0012332861700000,  0.0011829014400000,
         0.0011383017500000,  0.0011003192100000,  0.0010693207600000,
         0.0010452157500000,  0.0010274920900000,  0.0010152773500000,
         0.0010074196600000,  0.0010025824600000,  0.0009993461060000,
         0.0009963095870000,  0.0009921856200000,  0.0009858831670000,
         0.0009765725350000,  0.0009637295150000,  0.0009471565480000,
         0.0009269805250000,  0.0009036283460000,  0.0008777828530000,
         0.0008503228960000,  0.0008222522470000,  0.0007946226160000,
         0.0007684562310000,  0.0007446732820000,  0.0007240290010000,
         0.0007070643370000,  0.0006940731560000,  0.0006850876680000,
         0.0006798825140000,  0.0006779966960000,  0.0006787713280000,
         0.0006814002250000,  0.0006849895590000,  0.0006886223050000,
         0.0006914230190000,  0.0006926185640000,  0.0006915908040000,
         0.0006879179040000,  0.0006814016880000,  0.0006720795360000,
         0.0006602202640000,  0.0006463045570000,  0.0006309914610000,
         0.0006150733230000,  0.0005994222380000,  0.0005849315530000,
         0.0005724561860000,  0.0005627555340000,  0.0005564424780000,
         0.0005539415490000,  0.0005554586780000,  0.0005609641960000,
         0.0005701898960000,  0.0005826401070000,  0.0005976158920000,
         0.0006142507200000,  0.0006315553380000,  0.0006484690650000,
         0.0006639144780000,  0.0006768523020000,  0.0006863334500000,
         0.0006915453740000,  0.0006918503560000,  0.0006868138410000,
         0.0006762216200000,  0.0006600852630000,  0.0006386359330000,
         0.0006123073310000,  0.0005817090940000,  0.0005475924390000,
         0.0005108101900000,  0.0004722735530000,  0.0004329080480000,
         0.0003936109670000,  0.0003552125040000,  0.0003184424320000,
         0.0002839037650000,  0.0002520544410000,  0.0002231975300000,
         0.0001974800120000,  0.0001748996910000,  0.0001553193890000,
         0.0001384872190000,  0.0001240614510000,  0.0001116383310000,
         0.0001007811090000,  0.0000910485611000,  0.0000820213965000,
         0.0000733251391000,  0.0000646483148000,  0.0000557551043000,
         0.0000464919575000,  0.0000367880307000,  0.0000266496661000,
         0.0000161494711000,  0.0000054108567600
    },
    {   /* 96 kHz Bandreject coefficients */
       -0.0000237570640000, -0.0000711446190000, -0.0001181546350000,
       -0.0001645426450000, -0.0002100748790000, -0.0002545322520000,
       -0.0002977140790000, -0.0003394414340000, -0.0003795600960000,
       -0.0004179430210000, -0.0004544922950000, -0.0004891405230000,
       -0.0005218516380000, -0.0005526210960000, -0.0005814754650000,
       -0.0006084714090000, -0.0006336940780000, -0.0006572549420000,
       -0.0006792890950000, -0.0006999520950000, -0.0007194163730000,
       -0.0007378673070000, -0.0007554990020000, -0.0007725098810000,
       -0.0007890981560000, -0.0008054572660000, -0.0008217713750000,
       -0.0008382110040000, -0.0008549289040000, -0.0008720562250000,
       -0.0008896990790000, -0.0009079355550000, -0.0009268132530000,
       -0.0009463473930000, -0.0009665195360000, -0.0009872769550000,
       -0.0010085326800000, -0.0010301662100000, -0.0010520249200000,
       -0.0010739261300000, -0.0010956597600000, -0.0011169916600000,
       -0.0011376674000000, -0.0011574166100000, -0.0011759577000000,
       -0.0011930028800000, -0.0012082634800000, -0.0012214553900000,
       -0.0012323045900000, -0.0012405525500000, -0.0012459616000000,
       -0.0012483199800000, -0.0012474465800000, -0.0012431952500000,
       -0.0012354586100000, -0.0012241712400000, -0.0012093122100000,
       -0.0011909069800000, -0.0011690283700000, -0.0011437969300000,
       -0.0011153803400000, -0.0010839921000000, -0.0010498893200000,
       -0.0010133697900000, -0.0009747682970000, -0.0009344521850000,
       -0.0008928163460000, -0.0008502776200000, -0.0008072687380000,
       -0.0007642318790000, -0.0007216119730000, -0.0006798498360000,
       -0.0006393752750000, -0.0006006002590000, -0.0005639123010000,
       -0.0005296681450000, -0.0004981878950000, -0.0004697496710000,
       -0.0004445849180000, -0.0004228744430000, -0.0004047452660000,
       -0.0003902683640000, -0.0003794573410000, -0.0003722680880000,
       -0.0003685994330000, -0.0003682948090000, -0.0003711449120000,
       -0.0003768913280000, -0.0003852310880000, -0.0003958220780000,
       -0.0004082892330000, -0.0004222314230000, -0.0004372289200000,
       -0.0004528513320000, -0.0004686658650000, -0.0004842457920000,
       -0.0004991789710000, -0.0005130762730000, -0.0005255797670000,
       -0.0005363705190000, -0.0005451758620000, -0.0005517759890000,
       -0.0005560097580000, -0.0005577795770000, -0.0005570552670000,
       -0.0005538768240000, -0.0005483559930000, -0.0005406766090000,
       -0.0005310936720000, -0.0005199311420000, -0.0005075784590000,
       -0.0004944858250000, -0.0004811582990000, -0.0004681487770000,
       -0.0004560499520000, -0.0004454853750000, -0.0004370997430000,
